%YAML:1.0
---
model: !!opencv-object-detector-hog
   winSize: [ 24, 24 ]
   blockSize: [ 16, 16 ]
   blockStride: [ 8, 8 ]
   cellSize: [ 8, 8 ]
   nbins: 9
   derivAperture: 1
   winSigma: 4.
   histogramNormType: 0
   L2HysThreshold: 2.0000000000000001e-01
   gammaCorrection: 1
   nlevels: 64
   signedGradient: 0
   SVMDetector: [ -4.44083568e-03, -2.95746303e-03, 3.78692755e-04,
       5.85426751e-04, 1.52754728e-02, 2.50575645e-03, 5.51900081e-03,
       1.34673412e-03, -5.05298795e-03, -6.30745851e-03, -7.32696056e-03,
       1.45582121e-03, 4.66231082e-04, 2.15131436e-02, 2.12384854e-03,
       3.91275249e-03, 3.02116066e-04, -5.28297387e-03, -2.16074521e-03,
       -3.02506844e-03, 5.12197847e-04, -2.56750593e-03, 1.07044820e-02,
       6.12168456e-04, 5.99984033e-03, 2.44430569e-03, -4.24861297e-04,
       -5.31765493e-03, -7.18249334e-03, -1.84188562e-03,
       -1.64995523e-04, 1.74488556e-02, 2.33440101e-03, 5.59766358e-03,
       2.53498438e-03, -1.06571056e-03, -4.79949918e-03, -5.08772349e-03,
       2.03718455e-03, -1.05359140e-04, 9.21926927e-03, -4.26584709e-04,
       5.57434279e-03, 2.92659737e-04, -3.33078508e-03, -4.94028023e-03,
       -7.74295861e-03, 1.97515404e-03, 8.40311812e-04, 1.10897347e-02,
       3.56615230e-04, 9.62899998e-03, 1.18307042e-04, -3.48998117e-03,
       -5.96998353e-03, -8.04818049e-03, -3.57580604e-03, 9.03927023e-04,
       7.31073041e-03, -2.65946775e-03, 5.70126111e-03, 1.47540518e-03,
       -2.67446530e-03, 5.76887760e-06, -8.58705956e-04, 3.72651126e-03,
       2.16208841e-03, 1.19893532e-02, 1.58269249e-03, 9.79332719e-03,
       2.82621547e-03, -9.76698590e-04, -3.81028396e-03, -5.86155278e-04,
       -3.85727850e-04, -4.79109865e-03, 6.22693636e-03, -1.90801671e-04,
       4.04633861e-03, 1.39494461e-03, -2.97450018e-03, -5.74118458e-03,
       -3.62947863e-03, -4.02563717e-03, -5.09626884e-03, 1.06367106e-02,
       1.21006579e-03, 1.75248913e-03, -9.55200871e-04, -3.37560265e-03,
       -7.30851898e-03, -3.16038216e-03, -2.09777895e-03,
       -6.32128026e-03, 1.18130576e-02, 1.05098425e-03, 3.38683953e-03,
       -1.84161949e-03, -6.82964548e-03, -4.34451876e-03, 1.59619073e-03,
       6.77009067e-03, 4.72222129e-03, 2.50178743e-02, 3.50382598e-03,
       2.76087993e-03, -5.22866007e-03, -6.39056880e-03, -7.45950639e-03,
       -8.44997726e-03, -7.11549772e-03, -2.82131112e-03, 1.25797000e-03,
       -1.77461840e-03, 1.31560582e-05, -2.88061216e-03, -4.00299719e-03,
       -6.99992757e-04, -4.02883533e-03, -3.71794170e-03,
       -3.70065845e-03, 3.17991222e-03, -2.53927801e-03, 3.09530110e-03,
       -2.82650092e-03, -2.23187800e-03, -6.82735536e-03,
       -3.51151964e-03, -2.26266892e-03, 1.88967679e-04, 9.30953678e-03,
       -3.69367376e-03, -1.97654008e-03, -5.46142273e-03,
       -6.26443233e-03, 6.76204870e-03, 7.25460763e-04, 3.15407920e-03,
       6.74494496e-03, 1.00989128e-02, -6.62543229e-04, 4.03363537e-03,
       4.57321433e-03, 7.77237583e-03, -3.81028396e-03, -5.86155278e-04,
       -3.85727850e-04, -4.79109865e-03, 6.22693636e-03, -1.90801671e-04,
       4.04633861e-03, 1.39494461e-03, -2.97450018e-03, -5.74118458e-03,
       -3.62947863e-03, -4.02563717e-03, -5.09626884e-03, 1.06367106e-02,
       1.21006579e-03, 1.75248913e-03, -9.55200871e-04, -3.37560265e-03,
       -7.30851898e-03, -3.16038216e-03, -2.09777895e-03,
       -6.32128026e-03, 1.18130576e-02, 1.05098425e-03, 3.38683953e-03,
       -1.84161949e-03, -6.82964548e-03, -4.34451876e-03, 1.59619073e-03,
       6.77009067e-03, 4.72222129e-03, 2.50178743e-02, 3.50382598e-03,
       2.76087993e-03, -5.22866007e-03, -6.39056880e-03, -7.45950639e-03,
       -8.44997726e-03, -7.11549772e-03, -2.82131112e-03, 1.25797000e-03,
       -1.77461840e-03, 1.31560582e-05, -2.88061216e-03, -4.00299719e-03,
       -6.99992757e-04, -4.02883533e-03, -3.71794170e-03,
       -3.70065845e-03, 3.17991222e-03, -2.53927801e-03, 3.09530110e-03,
       -2.82650092e-03, -2.23187800e-03, -6.82735536e-03,
       -3.51151964e-03, -2.26266892e-03, 1.88967679e-04, 9.30953678e-03,
       -3.69367376e-03, -1.97654008e-03, -5.46142273e-03,
       -6.26443233e-03, 6.76204870e-03, 7.25460763e-04, 3.15407920e-03,
       6.74494496e-03, 1.00989128e-02, -6.62543229e-04, 4.03363537e-03,
       4.57321433e-03, 7.77237583e-03, -9.91527457e-03, -5.33511629e-03,
       -6.64330274e-03, -9.66639537e-03, 3.25910310e-04, -3.03964107e-03,
       -2.67235306e-03, -3.60047864e-03, -8.62290990e-03,
       -7.02972338e-03, -1.01336720e-03, -1.11448183e-03, 1.28790364e-03,
       9.02342703e-03, -2.61436612e-03, -4.53301566e-03, -6.27396768e-03,
       -5.66079700e-03, -6.78756135e-03, -4.03570198e-03,
       -4.00975719e-03, -1.01868762e-02, -1.49443571e-03,
       -4.64005489e-03, -2.27977079e-03, -3.15414346e-03,
       -5.43174334e-03, 6.53606607e-03, 1.00527341e-02, 1.07041197e-02,
       1.11547615e-02, 1.86732337e-02, 6.12624502e-03, 4.39057918e-03,
       8.67128652e-03, 6.85324566e-03, -9.58462711e-03, -6.95850328e-03,
       -9.29993298e-03, -4.07263031e-03, -5.52801415e-03,
       -1.01001961e-02, -9.26141348e-03, -6.06467994e-03,
       -7.80281099e-03, 2.06148205e-03, -4.02272306e-03, -7.88373128e-03,
       -6.46644784e-03, -5.06943604e-03, -7.77770579e-03,
       -4.61775251e-03, 2.54048337e-03, 3.77814355e-03, 8.95742094e-04,
       1.51322660e-04, -1.22157380e-03, -8.13983730e-04, 5.52055892e-04,
       -3.48810712e-03, -5.32114366e-03, -1.85235974e-03,
       -1.53388246e-03, 8.19046423e-03, 6.83420617e-03, 2.85996846e-03,
       2.21928325e-03, 1.12476945e-03, 1.63231452e-03, 4.62604128e-03,
       9.04306769e-03, 1.08324653e-02, -9.91527457e-03, -5.33511629e-03,
       -6.64330274e-03, -9.66639537e-03, 3.25910310e-04, -3.03964107e-03,
       -2.67235306e-03, -3.60047864e-03, -8.62290990e-03,
       -7.02972338e-03, -1.01336720e-03, -1.11448183e-03, 1.28790364e-03,
       9.02342703e-03, -2.61436612e-03, -4.53301566e-03, -6.27396768e-03,
       -5.66079700e-03, -6.78756135e-03, -4.03570198e-03,
       -4.00975719e-03, -1.01868762e-02, -1.49443571e-03,
       -4.64005489e-03, -2.27977079e-03, -3.15414346e-03,
       -5.43174334e-03, 6.53606607e-03, 1.00527341e-02, 1.07041197e-02,
       1.11547615e-02, 1.86732337e-02, 6.12624502e-03, 4.39057918e-03,
       8.67128652e-03, 6.85324566e-03, -9.58462711e-03, -6.95850328e-03,
       -9.29993298e-03, -4.07263031e-03, -5.52801415e-03,
       -1.01001961e-02, -9.26141348e-03, -6.06467994e-03,
       -7.80281099e-03, 2.06148205e-03, -4.02272306e-03, -7.88373128e-03,
       -6.46644784e-03, -5.06943604e-03, -7.77770579e-03,
       -4.61775251e-03, 2.54048337e-03, 3.77814355e-03, 8.95742094e-04,
       1.51322660e-04, -1.22157380e-03, -8.13983730e-04, 5.52055892e-04,
       -3.48810712e-03, -5.32114366e-03, -1.85235974e-03,
       -1.53388246e-03, 8.19046423e-03, 6.83420617e-03, 2.85996846e-03,
       2.21928325e-03, 1.12476945e-03, 1.63231452e-03, 4.62604128e-03,
       9.04306769e-03, 1.08324653e-02, -1.10193510e-02, -8.62050243e-03,
       -8.83775298e-03, -1.41121373e-02, -1.41458036e-02,
       -8.33410770e-03, -5.57516795e-03, -6.81116106e-03,
       -8.09312053e-03, 1.12291635e-03, 1.02540606e-03, 2.15930026e-03,
       3.75653524e-03, 1.16201062e-02, 5.20947995e-03, 7.91613013e-03,
       6.89403294e-03, 5.05646272e-03, -1.07693151e-02, -7.03191431e-03,
       -7.23417336e-03, -1.30613204e-02, -1.84882991e-02,
       -1.25480611e-02, -6.44994713e-03, -4.21387097e-03,
       -8.79853405e-03, 1.43987546e-03, 1.06188271e-03, 7.27610616e-03,
       7.21877115e-03, 1.19767617e-02, 7.21482420e-03, 6.62122294e-03,
       4.30083647e-03, 2.87122931e-03, 1.89398183e-03, -3.57319438e-03,
       -7.10001681e-03, -5.13869990e-03, -1.22533902e-03,
       -3.48827639e-03, -7.39037932e-04, 8.24206916e-04, 1.29267771e-03,
       2.61287484e-03, 2.34976236e-04, -3.62607301e-03, -6.15362730e-03,
       -5.67378616e-03, -1.54349243e-03, 4.25256277e-03, 2.29506334e-03,
       4.03438555e-03, 2.50127912e-03, 9.37104633e-04, -3.51415109e-03,
       -1.47789030e-03, 1.25639967e-03, -1.37853995e-03, -1.52162087e-04,
       8.55187536e-04, 2.10966007e-03, 4.83915396e-03, 8.20451009e-04,
       -4.47359821e-03, -5.55229466e-03, -3.90966423e-03,
       -1.15447829e-03, 3.55473114e-03, 2.56510195e-03, 6.01218920e-03,
       -1.10193510e-02, -8.62050243e-03, -8.83775298e-03,
       -1.41121373e-02, -1.41458036e-02, -8.33410770e-03,
       -5.57516795e-03, -6.81116106e-03, -8.09312053e-03, 1.12291635e-03,
       1.02540606e-03, 2.15930026e-03, 3.75653524e-03, 1.16201062e-02,
       5.20947995e-03, 7.91613013e-03, 6.89403294e-03, 5.05646272e-03,
       -1.07693151e-02, -7.03191431e-03, -7.23417336e-03,
       -1.30613204e-02, -1.84882991e-02, -1.25480611e-02,
       -6.44994713e-03, -4.21387097e-03, -8.79853405e-03, 1.43987546e-03,
       1.06188271e-03, 7.27610616e-03, 7.21877115e-03, 1.19767617e-02,
       7.21482420e-03, 6.62122294e-03, 4.30083647e-03, 2.87122931e-03,
       1.89398183e-03, -3.57319438e-03, -7.10001681e-03, -5.13869990e-03,
       -1.22533902e-03, -3.48827639e-03, -7.39037932e-04, 8.24206916e-04,
       1.29267771e-03, 2.61287484e-03, 2.34976236e-04, -3.62607301e-03,
       -6.15362730e-03, -5.67378616e-03, -1.54349243e-03, 4.25256277e-03,
       2.29506334e-03, 4.03438555e-03, 2.50127912e-03, 9.37104633e-04,
       -3.51415109e-03, -1.47789030e-03, 1.25639967e-03, -1.37853995e-03,
       -1.52162087e-04, 8.55187536e-04, 2.10966007e-03, 4.83915396e-03,
       8.20451009e-04, -4.47359821e-03, -5.55229466e-03, -3.90966423e-03,
       -1.15447829e-03, 3.55473114e-03, 2.56510195e-03, 6.01218920e-03,
       -6.29942352e-03, -5.32548176e-03, -4.41341661e-03,
       -9.47480928e-03, -1.14158122e-02, -8.56611785e-03,
       -3.94764496e-03, -5.00187650e-03, -7.33302720e-03, 4.97405976e-03,
       2.67613982e-03, 4.73647472e-03, 7.94163905e-03, 1.80943329e-02,
       1.02292318e-02, 8.20782222e-03, 3.87598807e-03, 2.01127189e-03,
       -7.33526889e-03, -8.99477396e-03, -9.42859706e-03,
       -1.03753200e-02, -9.49977338e-03, -8.60882737e-03,
       -6.07583392e-03, -6.47271099e-03, -8.98867566e-03, 4.02763998e-03,
       -2.62929429e-03, -4.09959210e-03, 1.00717065e-03, 9.93343350e-03,
       5.09774545e-03, 3.44252773e-03, -2.29713289e-04, -1.19999249e-03,
       1.80523683e-04, 1.48136227e-03, -4.55414318e-03, -8.50226614e-04,
       3.73798027e-03, 2.76199775e-03, 3.32308258e-03, 1.41215482e-04,
       -1.96539215e-03, 6.20047143e-03, 5.47015574e-03, -2.96060788e-03,
       -4.47756564e-03, -2.38657533e-03, 1.96739845e-03, 3.13369720e-03,
       3.69335944e-03, 5.80456108e-03, -5.01039438e-04, -3.48870573e-03,
       -9.77627374e-03, -7.66805978e-03, -6.33947738e-03,
       -5.53132128e-03, -4.64503188e-03, -5.67897828e-03,
       -4.09139413e-03, 2.97293789e-03, -2.34873849e-03, -4.04505897e-03,
       -8.44181981e-03, -1.09475488e-02, -6.12039864e-03,
       -1.25744822e-03, 3.92341847e-03, 5.65176038e-03, -6.29942352e-03,
       -5.32548176e-03, -4.41341661e-03, -9.47480928e-03,
       -1.14158122e-02, -8.56611785e-03, -3.94764496e-03,
       -5.00187650e-03, -7.33302720e-03, 4.97405976e-03, 2.67613982e-03,
       4.73647472e-03, 7.94163905e-03, 1.80943329e-02, 1.02292318e-02,
       8.20782222e-03, 3.87598807e-03, 2.01127189e-03, -7.33526889e-03,
       -8.99477396e-03, -9.42859706e-03, -1.03753200e-02,
       -9.49977338e-03, -8.60882737e-03, -6.07583392e-03,
       -6.47271099e-03, -8.98867566e-03, 4.02763998e-03, -2.62929429e-03,
       -4.09959210e-03, 1.00717065e-03, 9.93343350e-03, 5.09774545e-03,
       3.44252773e-03, -2.29713289e-04, -1.19999249e-03, 1.80523683e-04,
       1.48136227e-03, -4.55414318e-03, -8.50226614e-04, 3.73798027e-03,
       2.76199775e-03, 3.32308258e-03, 1.41215482e-04, -1.96539215e-03,
       6.20047143e-03, 5.47015574e-03, -2.96060788e-03, -4.47756564e-03,
       -2.38657533e-03, 1.96739845e-03, 3.13369720e-03, 3.69335944e-03,
       5.80456108e-03, -5.01039438e-04, -3.48870573e-03, -9.77627374e-03,
       -7.66805978e-03, -6.33947738e-03, -5.53132128e-03,
       -4.64503188e-03, -5.67897828e-03, -4.09139413e-03, 2.97293789e-03,
       -2.34873849e-03, -4.04505897e-03, -8.44181981e-03,
       -1.09475488e-02, -6.12039864e-03, -1.25744822e-03, 3.92341847e-03,
       5.65176038e-03, -1.93375465e-03, -3.00097838e-03, -5.83033031e-03,
       -5.60550764e-03, -3.43160168e-03, -5.80453407e-03,
       -2.33952655e-04, -1.76759588e-03, -3.95790208e-03, 7.48515874e-03,
       2.80261110e-03, 1.57773541e-03, 5.48944902e-03, 1.16534224e-02,
       5.23897633e-03, 2.86670309e-03, 1.17322628e-03, 3.26452660e-03,
       -2.68600925e-05, 1.32507898e-06, 1.73888786e-03, -1.01046334e-03,
       -9.15206329e-04, -9.63338278e-03, -2.14361539e-03,
       -2.05049408e-03, -1.95807079e-03, -1.34146924e-03,
       -2.22394956e-05, 5.90179162e-03, 6.26490777e-03, 9.66154877e-03,
       -3.07400408e-03, -3.99366021e-03, -3.84867564e-03,
       -3.61550297e-03, 2.48227152e-03, 1.63464423e-03, -2.48159748e-03,
       -2.14187056e-03, -2.44947802e-03, -6.32188329e-03,
       -5.68290241e-03, -4.86111362e-03, 2.32561288e-04, 1.11775920e-02,
       8.28772038e-03, 3.66012077e-03, 1.87784492e-03, 3.80177260e-03,
       -1.36892416e-03, 2.56564352e-03, 9.25035961e-03, 1.55686243e-02,
       -5.95998392e-03, -4.49893251e-03, -1.44053460e-03,
       -3.03305336e-03, -4.50534746e-03, -8.79083294e-03,
       -1.07429754e-02, -1.03025604e-02, -8.79506208e-03,
       -7.49113737e-03, 2.20939005e-03, 3.18500004e-03, -1.35172275e-03,
       2.97313812e-03, -2.64819479e-03, -7.32647162e-03, -1.20111825e-02,
       -8.66380055e-03, -1.93375465e-03, -3.00097838e-03,
       -5.83033031e-03, -5.60550764e-03, -3.43160168e-03,
       -5.80453407e-03, -2.33952655e-04, -1.76759588e-03,
       -3.95790208e-03, 7.48515874e-03, 2.80261110e-03, 1.57773541e-03,
       5.48944902e-03, 1.16534224e-02, 5.23897633e-03, 2.86670309e-03,
       1.17322628e-03, 3.26452660e-03, -2.68600925e-05, 1.32507898e-06,
       1.73888786e-03, -1.01046334e-03, -9.15206329e-04, -9.63338278e-03,
       -2.14361539e-03, -2.05049408e-03, -1.95807079e-03,
       -1.34146924e-03, -2.22394956e-05, 5.90179162e-03, 6.26490777e-03,
       9.66154877e-03, -3.07400408e-03, -3.99366021e-03, -3.84867564e-03,
       -3.61550297e-03, 2.48227152e-03, 1.63464423e-03, -2.48159748e-03,
       -2.14187056e-03, -2.44947802e-03, -6.32188329e-03,
       -5.68290241e-03, -4.86111362e-03, 2.32561288e-04, 1.11775920e-02,
       8.28772038e-03, 3.66012077e-03, 1.87784492e-03, 3.80177260e-03,
       -1.36892416e-03, 2.56564352e-03, 9.25035961e-03, 1.55686243e-02,
       -5.95998392e-03, -4.49893251e-03, -1.44053460e-03,
       -3.03305336e-03, -4.50534746e-03, -8.79083294e-03,
       -1.07429754e-02, -1.03025604e-02, -8.79506208e-03,
       -7.49113737e-03, 2.20939005e-03, 3.18500004e-03, -1.35172275e-03,
       2.97313812e-03, -2.64819479e-03, -7.32647162e-03, -1.20111825e-02,
       -8.66380055e-03, 2.87274481e-03, 3.66921362e-04, 5.94532490e-03,
       3.05858534e-03, 2.22236384e-03, -1.19394595e-02, -1.20027852e-03,
       -1.44308107e-03, 7.28522427e-04, 1.95629051e-04, -1.80210709e-03,
       6.83010463e-03, 5.25590964e-03, 1.32387429e-02, -3.39444703e-03,
       -4.01124451e-03, -2.29305285e-03, -5.47393574e-04, 2.15656729e-03,
       -3.01580178e-03, 3.17095313e-03, -2.45167816e-04, 5.52259805e-03,
       -7.70760560e-03, -2.57406477e-03, -4.64173499e-03,
       -4.21930745e-04, 1.15870568e-03, -3.72370938e-03, 2.95682251e-03,
       1.55281846e-03, 1.09465271e-02, -8.01017915e-04, -1.52409577e-03,
       -4.02570236e-03, 1.73263659e-04, 2.33935745e-04, -2.31568981e-03,
       4.33179317e-03, 3.07970936e-03, 1.02923997e-02, -2.94995960e-04,
       -5.00502810e-03, -5.60437981e-03, -2.15344620e-03, 2.48450902e-03,
       5.01064863e-03, 7.44596217e-03, 3.13451840e-03, 1.61732826e-02,
       4.65608947e-03, -1.67364633e-04, -6.75426051e-03, 7.90615333e-04,
       -3.34760849e-03, -5.45811513e-03, 7.01827521e-04, 2.62274174e-03,
       8.30280874e-03, -2.41869316e-03, -7.35053746e-03, -7.55440071e-03,
       -4.18305863e-03, -3.10257846e-03, -6.20352570e-04, 6.42398465e-03,
       4.81735030e-03, 1.45199783e-02, -3.64747457e-03, -9.43200663e-03,
       -6.64838543e-03, -5.36214979e-03, -4.79949918e-03,
       -5.08772349e-03, 2.03718455e-03, -1.05359140e-04, 9.21926927e-03,
       -4.26584709e-04, 5.57434279e-03, 2.92659737e-04, -3.33078508e-03,
       -4.94028023e-03, -7.74295861e-03, 1.97515404e-03, 8.40311812e-04,
       1.10897347e-02, 3.56615230e-04, 9.62899998e-03, 1.18307042e-04,
       -3.48998117e-03, -5.96998353e-03, -8.04818049e-03,
       -3.57580604e-03, 9.03927023e-04, 7.31073041e-03, -2.65946775e-03,
       5.70126111e-03, 1.47540518e-03, -2.67446530e-03, 5.76887760e-06,
       -8.58705956e-04, 3.72651126e-03, 2.16208841e-03, 1.19893532e-02,
       1.58269249e-03, 9.79332719e-03, 2.82621547e-03, -9.76698590e-04,
       -6.73749018e-03, -8.20323545e-03, -5.25315409e-04,
       -2.77462415e-03, 4.07037232e-03, 7.58037611e-04, 2.88840686e-03,
       -3.84180248e-03, -4.41018818e-03, -6.00309763e-03,
       -6.30986551e-03, -1.18061632e-03, -5.83379157e-03, 7.63429375e-03,
       1.05163905e-04, -4.72140789e-04, -4.44337912e-03, -4.66715312e-03,
       9.16125136e-04, -5.11574186e-03, -1.77519035e-03, -2.02149246e-03,
       5.01540117e-03, 3.32781044e-03, 6.11330289e-03, 9.89695662e-04,
       4.04619437e-04, 1.87303784e-04, -5.25809126e-03, -7.07735657e-04,
       2.63759866e-04, 9.43628605e-03, 4.39514127e-03, 3.85212083e-03,
       1.52650313e-03, 6.74897281e-04, -7.45950639e-03, -8.44997726e-03,
       -7.11549772e-03, -2.82131112e-03, 1.25797000e-03, -1.77461840e-03,
       1.31560582e-05, -2.88061216e-03, -4.00299719e-03, -6.99992757e-04,
       -4.02883533e-03, -3.71794170e-03, -3.70065845e-03, 3.17991222e-03,
       -2.53927801e-03, 3.09530110e-03, -2.82650092e-03, -2.23187800e-03,
       -6.82735536e-03, -3.51151964e-03, -2.26266892e-03, 1.88967679e-04,
       9.30953678e-03, -3.69367376e-03, -1.97654008e-03, -5.46142273e-03,
       -6.26443233e-03, 6.76204870e-03, 7.25460763e-04, 3.15407920e-03,
       6.74494496e-03, 1.00989128e-02, -6.62543229e-04, 4.03363537e-03,
       4.57321433e-03, 7.77237583e-03, -4.25146660e-03, -9.87212360e-03,
       -1.08388318e-02, -1.00559210e-02, -4.82198922e-03,
       -4.16520145e-03, 2.26664753e-03, -2.63664848e-03, -4.23318660e-03,
       -1.02538979e-02, -9.49658919e-03, -5.79756685e-03,
       -6.46019913e-03, 1.00084592e-03, 2.17544404e-03, 3.92262964e-03,
       -2.84003769e-03, -5.95754851e-03, 5.33920340e-03, -9.09116119e-04,
       -2.24801921e-03, -2.78442027e-03, 1.21964949e-04, -4.40715998e-03,
       3.35351611e-03, -1.33065588e-03, 1.03308808e-03, 7.54856924e-03,
       3.32532451e-03, -8.35519575e-04, 3.51505564e-03, 8.15856084e-03,
       4.76350635e-03, 6.75170077e-03, 1.90653990e-03, 1.73700496e-03,
       -7.45950639e-03, -8.44997726e-03, -7.11549772e-03,
       -2.82131112e-03, 1.25797000e-03, -1.77461840e-03, 1.31560582e-05,
       -2.88061216e-03, -4.00299719e-03, -6.99992757e-04,
       -4.02883533e-03, -3.71794170e-03, -3.70065845e-03, 3.17991222e-03,
       -2.53927801e-03, 3.09530110e-03, -2.82650092e-03, -2.23187800e-03,
       -6.82735536e-03, -3.51151964e-03, -2.26266892e-03, 1.88967679e-04,
       9.30953678e-03, -3.69367376e-03, -1.97654008e-03, -5.46142273e-03,
       -6.26443233e-03, 6.76204870e-03, 7.25460763e-04, 3.15407920e-03,
       6.74494496e-03, 1.00989128e-02, -6.62543229e-04, 4.03363537e-03,
       4.57321433e-03, 7.77237583e-03, -4.25146660e-03, -9.87212360e-03,
       -1.08388318e-02, -1.00559210e-02, -4.82198922e-03,
       -4.16520145e-03, 2.26664753e-03, -2.63664848e-03, -4.23318660e-03,
       -1.02538979e-02, -9.49658919e-03, -5.79756685e-03,
       -6.46019913e-03, 1.00084592e-03, 2.17544404e-03, 3.92262964e-03,
       -2.84003769e-03, -5.95754851e-03, 5.33920340e-03, -9.09116119e-04,
       -2.24801921e-03, -2.78442027e-03, 1.21964949e-04, -4.40715998e-03,
       3.35351611e-03, -1.33065588e-03, 1.03308808e-03, 7.54856924e-03,
       3.32532451e-03, -8.35519575e-04, 3.51505564e-03, 8.15856084e-03,
       4.76350635e-03, 6.75170077e-03, 1.90653990e-03, 1.73700496e-03,
       -9.58462711e-03, -6.95850328e-03, -9.29993298e-03,
       -4.07263031e-03, -5.52801415e-03, -1.01001961e-02,
       -9.26141348e-03, -6.06467994e-03, -7.80281099e-03, 2.06148205e-03,
       -4.02272306e-03, -7.88373128e-03, -6.46644784e-03,
       -5.06943604e-03, -7.77770579e-03, -4.61775251e-03, 2.54048337e-03,
       3.77814355e-03, 8.95742094e-04, 1.51322660e-04, -1.22157380e-03,
       -8.13983730e-04, 5.52055892e-04, -3.48810712e-03, -5.32114366e-03,
       -1.85235974e-03, -1.53388246e-03, 8.19046423e-03, 6.83420617e-03,
       2.85996846e-03, 2.21928325e-03, 1.12476945e-03, 1.63231452e-03,
       4.62604128e-03, 9.04306769e-03, 1.08324653e-02, 5.81562053e-03,
       -2.44254712e-03, -1.08298445e-02, -6.28773496e-03,
       -6.40596077e-03, -4.63013817e-03, -1.22620689e-03, 5.41319023e-04,
       4.01902478e-03, 2.71079992e-03, 1.67482998e-03, -8.91813822e-03,
       -4.01501684e-03, -6.87173987e-03, -1.54271908e-03, 1.13925838e-03,
       -3.01068230e-03, -2.37047602e-03, 5.39799500e-03, 2.63504940e-03,
       -5.28065488e-03, -4.84977197e-03, -5.78890648e-03,
       -1.92417915e-03, 5.88440662e-03, 6.58080401e-03, 9.23331175e-03,
       1.16141862e-03, 1.20888359e-03, -1.10484008e-02, -6.59649866e-03,
       -7.81925116e-03, -5.31119702e-04, 1.45217171e-03, -7.21074233e-04,
       -1.74819783e-03, -9.58462711e-03, -6.95850328e-03,
       -9.29993298e-03, -4.07263031e-03, -5.52801415e-03,
       -1.01001961e-02, -9.26141348e-03, -6.06467994e-03,
       -7.80281099e-03, 2.06148205e-03, -4.02272306e-03, -7.88373128e-03,
       -6.46644784e-03, -5.06943604e-03, -7.77770579e-03,
       -4.61775251e-03, 2.54048337e-03, 3.77814355e-03, 8.95742094e-04,
       1.51322660e-04, -1.22157380e-03, -8.13983730e-04, 5.52055892e-04,
       -3.48810712e-03, -5.32114366e-03, -1.85235974e-03,
       -1.53388246e-03, 8.19046423e-03, 6.83420617e-03, 2.85996846e-03,
       2.21928325e-03, 1.12476945e-03, 1.63231452e-03, 4.62604128e-03,
       9.04306769e-03, 1.08324653e-02, 5.81562053e-03, -2.44254712e-03,
       -1.08298445e-02, -6.28773496e-03, -6.40596077e-03,
       -4.63013817e-03, -1.22620689e-03, 5.41319023e-04, 4.01902478e-03,
       2.71079992e-03, 1.67482998e-03, -8.91813822e-03, -4.01501684e-03,
       -6.87173987e-03, -1.54271908e-03, 1.13925838e-03, -3.01068230e-03,
       -2.37047602e-03, 5.39799500e-03, 2.63504940e-03, -5.28065488e-03,
       -4.84977197e-03, -5.78890648e-03, -1.92417915e-03, 5.88440662e-03,
       6.58080401e-03, 9.23331175e-03, 1.16141862e-03, 1.20888359e-03,
       -1.10484008e-02, -6.59649866e-03, -7.81925116e-03,
       -5.31119702e-04, 1.45217171e-03, -7.21074233e-04, -1.74819783e-03,
       1.89398183e-03, -3.57319438e-03, -7.10001681e-03, -5.13869990e-03,
       -1.22533902e-03, -3.48827639e-03, -7.39037932e-04, 8.24206916e-04,
       1.29267771e-03, 2.61287484e-03, 2.34976236e-04, -3.62607301e-03,
       -6.15362730e-03, -5.67378616e-03, -1.54349243e-03, 4.25256277e-03,
       2.29506334e-03, 4.03438555e-03, 2.50127912e-03, 9.37104633e-04,
       -3.51415109e-03, -1.47789030e-03, 1.25639967e-03, -1.37853995e-03,
       -1.52162087e-04, 8.55187536e-04, 2.10966007e-03, 4.83915396e-03,
       8.20451009e-04, -4.47359821e-03, -5.55229466e-03, -3.90966423e-03,
       -1.15447829e-03, 3.55473114e-03, 2.56510195e-03, 6.01218920e-03,
       2.13102298e-03, 2.23101466e-03, -1.24705199e-03, -3.65905231e-03,
       -1.60976243e-03, 3.01782927e-03, 9.45109595e-03, 6.91676093e-03,
       3.20488052e-03, -2.80001736e-03, -4.30337526e-03, -8.44196510e-03,
       -4.94562835e-03, -1.80690933e-03, 4.67685657e-03, 1.50150200e-03,
       4.16543800e-04, -4.26737219e-03, -4.89491795e-04, 3.52739473e-03,
       -6.16990146e-04, -3.18754057e-04, 3.23742657e-04, 3.93336359e-03,
       5.09322109e-03, 4.11728024e-03, -5.17950160e-04, -6.03533257e-03,
       -1.49928767e-03, -1.45191082e-03, 1.67307339e-03, 7.34160785e-05,
       4.30005183e-03, -6.96209492e-04, -5.23156347e-03, -9.40135401e-03,
       1.89398183e-03, -3.57319438e-03, -7.10001681e-03, -5.13869990e-03,
       -1.22533902e-03, -3.48827639e-03, -7.39037932e-04, 8.24206916e-04,
       1.29267771e-03, 2.61287484e-03, 2.34976236e-04, -3.62607301e-03,
       -6.15362730e-03, -5.67378616e-03, -1.54349243e-03, 4.25256277e-03,
       2.29506334e-03, 4.03438555e-03, 2.50127912e-03, 9.37104633e-04,
       -3.51415109e-03, -1.47789030e-03, 1.25639967e-03, -1.37853995e-03,
       -1.52162087e-04, 8.55187536e-04, 2.10966007e-03, 4.83915396e-03,
       8.20451009e-04, -4.47359821e-03, -5.55229466e-03, -3.90966423e-03,
       -1.15447829e-03, 3.55473114e-03, 2.56510195e-03, 6.01218920e-03,
       2.13102298e-03, 2.23101466e-03, -1.24705199e-03, -3.65905231e-03,
       -1.60976243e-03, 3.01782927e-03, 9.45109595e-03, 6.91676093e-03,
       3.20488052e-03, -2.80001736e-03, -4.30337526e-03, -8.44196510e-03,
       -4.94562835e-03, -1.80690933e-03, 4.67685657e-03, 1.50150200e-03,
       4.16543800e-04, -4.26737219e-03, -4.89491795e-04, 3.52739473e-03,
       -6.16990146e-04, -3.18754057e-04, 3.23742657e-04, 3.93336359e-03,
       5.09322109e-03, 4.11728024e-03, -5.17950160e-04, -6.03533257e-03,
       -1.49928767e-03, -1.45191082e-03, 1.67307339e-03, 7.34160785e-05,
       4.30005183e-03, -6.96209492e-04, -5.23156347e-03, -9.40135401e-03,
       1.80523683e-04, 1.48136227e-03, -4.55414318e-03, -8.50226614e-04,
       3.73798027e-03, 2.76199775e-03, 3.32308258e-03, 1.41215482e-04,
       -1.96539215e-03, 6.20047143e-03, 5.47015574e-03, -2.96060788e-03,
       -4.47756564e-03, -2.38657533e-03, 1.96739845e-03, 3.13369720e-03,
       3.69335944e-03, 5.80456108e-03, -5.01039438e-04, -3.48870573e-03,
       -9.77627374e-03, -7.66805978e-03, -6.33947738e-03,
       -5.53132128e-03, -4.64503188e-03, -5.67897828e-03,
       -4.09139413e-03, 2.97293789e-03, -2.34873849e-03, -4.04505897e-03,
       -8.44181981e-03, -1.09475488e-02, -6.12039864e-03,
       -1.25744822e-03, 3.92341847e-03, 5.65176038e-03, 4.32865490e-04,
       3.18020280e-03, -4.56470950e-03, -5.08177839e-03, -2.86455429e-03,
       1.49681728e-04, 1.24919123e-03, 3.16248066e-03, 2.91178282e-03,
       -5.39472373e-03, -4.10690764e-03, -1.74157985e-03, 3.56519420e-04,
       -1.18812942e-03, -1.81622439e-04, -3.66864796e-03,
       -6.03105733e-03, -6.16550911e-03, 6.47810102e-03, 2.86966213e-03,
       -2.42600287e-03, -6.02267822e-03, -8.24104436e-03,
       -6.70374930e-03, -3.08442302e-03, 2.84398580e-03, 5.49786864e-03,
       4.23093326e-03, 4.16286243e-03, 5.55640843e-04, -2.96679256e-03,
       -6.03393000e-03, -6.19915966e-03, -8.12821742e-03,
       -4.94154543e-03, 3.98726622e-03, 1.80523683e-04, 1.48136227e-03,
       -4.55414318e-03, -8.50226614e-04, 3.73798027e-03, 2.76199775e-03,
       3.32308258e-03, 1.41215482e-04, -1.96539215e-03, 6.20047143e-03,
       5.47015574e-03, -2.96060788e-03, -4.47756564e-03, -2.38657533e-03,
       1.96739845e-03, 3.13369720e-03, 3.69335944e-03, 5.80456108e-03,
       -5.01039438e-04, -3.48870573e-03, -9.77627374e-03,
       -7.66805978e-03, -6.33947738e-03, -5.53132128e-03,
       -4.64503188e-03, -5.67897828e-03, -4.09139413e-03, 2.97293789e-03,
       -2.34873849e-03, -4.04505897e-03, -8.44181981e-03,
       -1.09475488e-02, -6.12039864e-03, -1.25744822e-03, 3.92341847e-03,
       5.65176038e-03, 4.32865490e-04, 3.18020280e-03, -4.56470950e-03,
       -5.08177839e-03, -2.86455429e-03, 1.49681728e-04, 1.24919123e-03,
       3.16248066e-03, 2.91178282e-03, -5.39472373e-03, -4.10690764e-03,
       -1.74157985e-03, 3.56519420e-04, -1.18812942e-03, -1.81622439e-04,
       -3.66864796e-03, -6.03105733e-03, -6.16550911e-03, 6.47810102e-03,
       2.86966213e-03, -2.42600287e-03, -6.02267822e-03, -8.24104436e-03,
       -6.70374930e-03, -3.08442302e-03, 2.84398580e-03, 5.49786864e-03,
       4.23093326e-03, 4.16286243e-03, 5.55640843e-04, -2.96679256e-03,
       -6.03393000e-03, -6.19915966e-03, -8.12821742e-03,
       -4.94154543e-03, 3.98726622e-03, 2.48227152e-03, 1.63464423e-03,
       -2.48159748e-03, -2.14187056e-03, -2.44947802e-03,
       -6.32188329e-03, -5.68290241e-03, -4.86111362e-03, 2.32561288e-04,
       1.11775920e-02, 8.28772038e-03, 3.66012077e-03, 1.87784492e-03,
       3.80177260e-03, -1.36892416e-03, 2.56564352e-03, 9.25035961e-03,
       1.55686243e-02, -5.95998392e-03, -4.49893251e-03, -1.44053460e-03,
       -3.03305336e-03, -4.50534746e-03, -8.79083294e-03,
       -1.07429754e-02, -1.03025604e-02, -8.79506208e-03,
       -7.49113737e-03, 2.20939005e-03, 3.18500004e-03, -1.35172275e-03,
       2.97313812e-03, -2.64819479e-03, -7.32647162e-03, -1.20111825e-02,
       -8.66380055e-03, 6.50188373e-03, 3.90346837e-03, 1.28483749e-03,
       -4.41101054e-03, -5.89691987e-03, -7.59071764e-03,
       -3.65626067e-03, -1.37192500e-03, 8.78479797e-03, 1.57912672e-02,
       8.56594555e-03, 6.42361771e-03, -2.44488055e-03, -9.38729476e-03,
       -7.71479635e-03, -2.99892505e-03, -2.50639650e-03, 1.18719069e-02,
       -8.63085221e-03, -3.08472943e-03, 1.46889972e-04, -7.04091741e-03,
       -4.02222574e-03, -7.33606704e-03, -7.68851442e-03,
       -1.37280058e-02, -1.11897849e-02, -4.35244571e-03,
       -1.92329206e-03, 3.12431040e-03, -5.07292524e-03, -5.42861363e-03,
       -6.68446627e-03, -5.02222916e-03, -1.26538733e-02,
       -1.24666002e-02, 2.48227152e-03, 1.63464423e-03, -2.48159748e-03,
       -2.14187056e-03, -2.44947802e-03, -6.32188329e-03,
       -5.68290241e-03, -4.86111362e-03, 2.32561288e-04, 1.11775920e-02,
       8.28772038e-03, 3.66012077e-03, 1.87784492e-03, 3.80177260e-03,
       -1.36892416e-03, 2.56564352e-03, 9.25035961e-03, 1.55686243e-02,
       -5.95998392e-03, -4.49893251e-03, -1.44053460e-03,
       -3.03305336e-03, -4.50534746e-03, -8.79083294e-03,
       -1.07429754e-02, -1.03025604e-02, -8.79506208e-03,
       -7.49113737e-03, 2.20939005e-03, 3.18500004e-03, -1.35172275e-03,
       2.97313812e-03, -2.64819479e-03, -7.32647162e-03, -1.20111825e-02,
       -8.66380055e-03, 6.50188373e-03, 3.90346837e-03, 1.28483749e-03,
       -4.41101054e-03, -5.89691987e-03, -7.59071764e-03,
       -3.65626067e-03, -1.37192500e-03, 8.78479797e-03, 1.57912672e-02,
       8.56594555e-03, 6.42361771e-03, -2.44488055e-03, -9.38729476e-03,
       -7.71479635e-03, -2.99892505e-03, -2.50639650e-03, 1.18719069e-02,
       -8.63085221e-03, -3.08472943e-03, 1.46889972e-04, -7.04091741e-03,
       -4.02222574e-03, -7.33606704e-03, -7.68851442e-03,
       -1.37280058e-02, -1.11897849e-02, -4.35244571e-03,
       -1.92329206e-03, 3.12431040e-03, -5.07292524e-03, -5.42861363e-03,
       -6.68446627e-03, -5.02222916e-03, -1.26538733e-02,
       -1.24666002e-02, 2.33935745e-04, -2.31568981e-03, 4.33179317e-03,
       3.07970936e-03, 1.02923997e-02, -2.94995960e-04, -5.00502810e-03,
       -5.60437981e-03, -2.15344620e-03, 2.48450902e-03, 5.01064863e-03,
       7.44596217e-03, 3.13451840e-03, 1.61732826e-02, 4.65608947e-03,
       -1.67364633e-04, -6.75426051e-03, 7.90615333e-04, -3.34760849e-03,
       -5.45811513e-03, 7.01827521e-04, 2.62274174e-03, 8.30280874e-03,
       -2.41869316e-03, -7.35053746e-03, -7.55440071e-03,
       -4.18305863e-03, -3.10257846e-03, -6.20352570e-04, 6.42398465e-03,
       4.81735030e-03, 1.45199783e-02, -3.64747457e-03, -9.43200663e-03,
       -6.64838543e-03, -5.36214979e-03, -1.28045666e-03, 4.98890458e-03,
       6.33022934e-03, -9.59001656e-04, 5.79903973e-03, 3.25938890e-04,
       -1.63515087e-03, -7.67500885e-03, -3.29526374e-03, 2.43493426e-03,
       3.49209481e-03, 5.01978956e-03, 9.04676446e-04, 8.39383807e-03,
       1.98877580e-03, 4.63708490e-03, -1.99328992e-03, -3.90969857e-04,
       -5.05994447e-03, -2.11872905e-03, 4.34531691e-03, -2.93164368e-04,
       5.61867375e-03, -6.94956305e-03, -8.21548700e-03, -6.10380992e-03,
       -5.40875457e-03, -9.40747000e-03, -1.98444934e-03, 5.28551918e-03,
       1.11503224e-03, 5.65702841e-03, -3.37660103e-03, -1.20948534e-03,
       -5.02841780e-03, -7.24634482e-03, -6.73749018e-03,
       -8.20323545e-03, -5.25315409e-04, -2.77462415e-03, 4.07037232e-03,
       7.58037611e-04, 2.88840686e-03, -3.84180248e-03, -4.41018818e-03,
       -6.00309763e-03, -6.30986551e-03, -1.18061632e-03,
       -5.83379157e-03, 7.63429375e-03, 1.05163905e-04, -4.72140789e-04,
       -4.44337912e-03, -4.66715312e-03, 9.16125136e-04, -5.11574186e-03,
       -1.77519035e-03, -2.02149246e-03, 5.01540117e-03, 3.32781044e-03,
       6.11330289e-03, 9.89695662e-04, 4.04619437e-04, 1.87303784e-04,
       -5.25809126e-03, -7.07735657e-04, 2.63759866e-04, 9.43628605e-03,
       4.39514127e-03, 3.85212083e-03, 1.52650313e-03, 6.74897281e-04,
       -7.07446272e-03, -6.56615105e-03, -4.50576982e-03,
       -8.31781700e-03, 3.94896651e-03, -2.80513428e-03, -2.40103551e-03,
       -5.10645146e-03, -5.18989097e-03, -4.23654588e-03,
       -5.81438770e-04, 3.35078425e-04, -5.68138482e-03, 1.01851691e-02,
       -2.27104663e-03, -2.12615682e-03, -3.61171085e-03,
       -5.60934329e-03, -5.09902881e-03, -4.38294653e-03,
       -1.81380159e-03, -1.48399326e-03, 8.47155135e-03, -3.70357418e-04,
       3.81483638e-04, -2.26237066e-03, -5.36668813e-03, -2.69940658e-03,
       9.58303979e-04, 6.79924013e-03, 8.65986291e-03, 1.64549258e-02,
       -3.47042544e-04, -3.28062358e-03, -7.72367790e-03,
       -6.59914128e-03, -4.25146660e-03, -9.87212360e-03,
       -1.08388318e-02, -1.00559210e-02, -4.82198922e-03,
       -4.16520145e-03, 2.26664753e-03, -2.63664848e-03, -4.23318660e-03,
       -1.02538979e-02, -9.49658919e-03, -5.79756685e-03,
       -6.46019913e-03, 1.00084592e-03, 2.17544404e-03, 3.92262964e-03,
       -2.84003769e-03, -5.95754851e-03, 5.33920340e-03, -9.09116119e-04,
       -2.24801921e-03, -2.78442027e-03, 1.21964949e-04, -4.40715998e-03,
       3.35351611e-03, -1.33065588e-03, 1.03308808e-03, 7.54856924e-03,
       3.32532451e-03, -8.35519575e-04, 3.51505564e-03, 8.15856084e-03,
       4.76350635e-03, 6.75170077e-03, 1.90653990e-03, 1.73700496e-03,
       -1.22689083e-02, -9.57780983e-03, -7.06574367e-03,
       -7.41459150e-03, -3.46196163e-03, 2.08211160e-04, -2.66686152e-03,
       -1.09909782e-02, -1.32037131e-02, -9.55532398e-03,
       -5.89260971e-03, -4.78834938e-03, -3.37296142e-03,
       -3.20652442e-04, -5.97405201e-03, -1.21741248e-02,
       -1.63032226e-02, -1.41753489e-02, -3.71765834e-03,
       -3.88943730e-03, -4.31754161e-03, -2.16896413e-03, 1.50227663e-03,
       6.52037375e-03, 4.47760383e-03, 5.13406645e-04, -3.35881626e-03,
       3.00055859e-03, 4.18302836e-03, 4.15095175e-03, 1.15320424e-03,
       2.67494959e-03, -1.83527265e-03, -6.75566914e-03, -8.48776940e-03,
       -6.68905769e-03, -4.25146660e-03, -9.87212360e-03,
       -1.08388318e-02, -1.00559210e-02, -4.82198922e-03,
       -4.16520145e-03, 2.26664753e-03, -2.63664848e-03, -4.23318660e-03,
       -1.02538979e-02, -9.49658919e-03, -5.79756685e-03,
       -6.46019913e-03, 1.00084592e-03, 2.17544404e-03, 3.92262964e-03,
       -2.84003769e-03, -5.95754851e-03, 5.33920340e-03, -9.09116119e-04,
       -2.24801921e-03, -2.78442027e-03, 1.21964949e-04, -4.40715998e-03,
       3.35351611e-03, -1.33065588e-03, 1.03308808e-03, 7.54856924e-03,
       3.32532451e-03, -8.35519575e-04, 3.51505564e-03, 8.15856084e-03,
       4.76350635e-03, 6.75170077e-03, 1.90653990e-03, 1.73700496e-03,
       -1.22689083e-02, -9.57780983e-03, -7.06574367e-03,
       -7.41459150e-03, -3.46196163e-03, 2.08211160e-04, -2.66686152e-03,
       -1.09909782e-02, -1.32037131e-02, -9.55532398e-03,
       -5.89260971e-03, -4.78834938e-03, -3.37296142e-03,
       -3.20652442e-04, -5.97405201e-03, -1.21741248e-02,
       -1.63032226e-02, -1.41753489e-02, -3.71765834e-03,
       -3.88943730e-03, -4.31754161e-03, -2.16896413e-03, 1.50227663e-03,
       6.52037375e-03, 4.47760383e-03, 5.13406645e-04, -3.35881626e-03,
       3.00055859e-03, 4.18302836e-03, 4.15095175e-03, 1.15320424e-03,
       2.67494959e-03, -1.83527265e-03, -6.75566914e-03, -8.48776940e-03,
       -6.68905769e-03, 5.81562053e-03, -2.44254712e-03, -1.08298445e-02,
       -6.28773496e-03, -6.40596077e-03, -4.63013817e-03,
       -1.22620689e-03, 5.41319023e-04, 4.01902478e-03, 2.71079992e-03,
       1.67482998e-03, -8.91813822e-03, -4.01501684e-03, -6.87173987e-03,
       -1.54271908e-03, 1.13925838e-03, -3.01068230e-03, -2.37047602e-03,
       5.39799500e-03, 2.63504940e-03, -5.28065488e-03, -4.84977197e-03,
       -5.78890648e-03, -1.92417915e-03, 5.88440662e-03, 6.58080401e-03,
       9.23331175e-03, 1.16141862e-03, 1.20888359e-03, -1.10484008e-02,
       -6.59649866e-03, -7.81925116e-03, -5.31119702e-04, 1.45217171e-03,
       -7.21074233e-04, -1.74819783e-03, 2.65568466e-04, -1.70528679e-03,
       -6.32471405e-03, -5.53434063e-03, -6.09860616e-03,
       -1.11999968e-03, 1.95221219e-03, -2.38019647e-03, -3.37634818e-03,
       2.43822229e-03, 3.29290866e-04, -1.45050557e-03, -3.33442027e-03,
       -2.03167973e-03, -3.58994538e-03, -2.28470052e-03,
       -6.37602992e-03, -3.86911537e-03, -1.59039220e-03,
       -3.10442853e-03, -1.11055691e-02, -8.46587680e-03,
       -5.62358228e-03, 2.56601052e-04, 1.04258000e-03, -3.78590403e-03,
       -4.50781081e-03, 2.08508340e-03, -1.40297296e-03, -4.54681087e-03,
       -5.32398699e-03, 4.61485423e-03, 7.18970178e-03, 4.18802164e-03,
       -5.40854968e-03, -3.06891906e-03, 5.81562053e-03, -2.44254712e-03,
       -1.08298445e-02, -6.28773496e-03, -6.40596077e-03,
       -4.63013817e-03, -1.22620689e-03, 5.41319023e-04, 4.01902478e-03,
       2.71079992e-03, 1.67482998e-03, -8.91813822e-03, -4.01501684e-03,
       -6.87173987e-03, -1.54271908e-03, 1.13925838e-03, -3.01068230e-03,
       -2.37047602e-03, 5.39799500e-03, 2.63504940e-03, -5.28065488e-03,
       -4.84977197e-03, -5.78890648e-03, -1.92417915e-03, 5.88440662e-03,
       6.58080401e-03, 9.23331175e-03, 1.16141862e-03, 1.20888359e-03,
       -1.10484008e-02, -6.59649866e-03, -7.81925116e-03,
       -5.31119702e-04, 1.45217171e-03, -7.21074233e-04, -1.74819783e-03,
       2.65568466e-04, -1.70528679e-03, -6.32471405e-03, -5.53434063e-03,
       -6.09860616e-03, -1.11999968e-03, 1.95221219e-03, -2.38019647e-03,
       -3.37634818e-03, 2.43822229e-03, 3.29290866e-04, -1.45050557e-03,
       -3.33442027e-03, -2.03167973e-03, -3.58994538e-03,
       -2.28470052e-03, -6.37602992e-03, -3.86911537e-03,
       -1.59039220e-03, -3.10442853e-03, -1.11055691e-02,
       -8.46587680e-03, -5.62358228e-03, 2.56601052e-04, 1.04258000e-03,
       -3.78590403e-03, -4.50781081e-03, 2.08508340e-03, -1.40297296e-03,
       -4.54681087e-03, -5.32398699e-03, 4.61485423e-03, 7.18970178e-03,
       4.18802164e-03, -5.40854968e-03, -3.06891906e-03, 2.13102298e-03,
       2.23101466e-03, -1.24705199e-03, -3.65905231e-03, -1.60976243e-03,
       3.01782927e-03, 9.45109595e-03, 6.91676093e-03, 3.20488052e-03,
       -2.80001736e-03, -4.30337526e-03, -8.44196510e-03,
       -4.94562835e-03, -1.80690933e-03, 4.67685657e-03, 1.50150200e-03,
       4.16543800e-04, -4.26737219e-03, -4.89491795e-04, 3.52739473e-03,
       -6.16990146e-04, -3.18754057e-04, 3.23742657e-04, 3.93336359e-03,
       5.09322109e-03, 4.11728024e-03, -5.17950160e-04, -6.03533257e-03,
       -1.49928767e-03, -1.45191082e-03, 1.67307339e-03, 7.34160785e-05,
       4.30005183e-03, -6.96209492e-04, -5.23156347e-03, -9.40135401e-03,
       -6.62011374e-03, -6.40059216e-03, -9.61638708e-03,
       -4.61242720e-03, 2.66676047e-03, 4.84737009e-03, 8.73722718e-04,
       -7.38039752e-03, -7.85364676e-03, -4.15183790e-03,
       -3.96344066e-03, -4.51265229e-03, -8.67854178e-05, 1.10069579e-02,
       1.23243863e-02, -3.54450594e-06, -5.59262373e-03, -8.92565493e-03,
       -6.37180917e-03, -3.41168582e-03, 3.82787571e-03, 7.96795916e-03,
       4.52737603e-03, -5.44819486e-05, -9.01005138e-03, -1.30710434e-02,
       -1.13798780e-02, -3.78500996e-03, 2.14162422e-03, 8.14033300e-03,
       1.11142565e-02, 1.36217512e-02, 3.03193461e-03, -8.30532983e-03,
       -8.57252162e-03, -5.72455721e-03, 2.13102298e-03, 2.23101466e-03,
       -1.24705199e-03, -3.65905231e-03, -1.60976243e-03, 3.01782927e-03,
       9.45109595e-03, 6.91676093e-03, 3.20488052e-03, -2.80001736e-03,
       -4.30337526e-03, -8.44196510e-03, -4.94562835e-03,
       -1.80690933e-03, 4.67685657e-03, 1.50150200e-03, 4.16543800e-04,
       -4.26737219e-03, -4.89491795e-04, 3.52739473e-03, -6.16990146e-04,
       -3.18754057e-04, 3.23742657e-04, 3.93336359e-03, 5.09322109e-03,
       4.11728024e-03, -5.17950160e-04, -6.03533257e-03, -1.49928767e-03,
       -1.45191082e-03, 1.67307339e-03, 7.34160785e-05, 4.30005183e-03,
       -6.96209492e-04, -5.23156347e-03, -9.40135401e-03,
       -6.62011374e-03, -6.40059216e-03, -9.61638708e-03,
       -4.61242720e-03, 2.66676047e-03, 4.84737009e-03, 8.73722718e-04,
       -7.38039752e-03, -7.85364676e-03, -4.15183790e-03,
       -3.96344066e-03, -4.51265229e-03, -8.67854178e-05, 1.10069579e-02,
       1.23243863e-02, -3.54450594e-06, -5.59262373e-03, -8.92565493e-03,
       -6.37180917e-03, -3.41168582e-03, 3.82787571e-03, 7.96795916e-03,
       4.52737603e-03, -5.44819486e-05, -9.01005138e-03, -1.30710434e-02,
       -1.13798780e-02, -3.78500996e-03, 2.14162422e-03, 8.14033300e-03,
       1.11142565e-02, 1.36217512e-02, 3.03193461e-03, -8.30532983e-03,
       -8.57252162e-03, -5.72455721e-03, 4.32865490e-04, 3.18020280e-03,
       -4.56470950e-03, -5.08177839e-03, -2.86455429e-03, 1.49681728e-04,
       1.24919123e-03, 3.16248066e-03, 2.91178282e-03, -5.39472373e-03,
       -4.10690764e-03, -1.74157985e-03, 3.56519420e-04, -1.18812942e-03,
       -1.81622439e-04, -3.66864796e-03, -6.03105733e-03,
       -6.16550911e-03, 6.47810102e-03, 2.86966213e-03, -2.42600287e-03,
       -6.02267822e-03, -8.24104436e-03, -6.70374930e-03,
       -3.08442302e-03, 2.84398580e-03, 5.49786864e-03, 4.23093326e-03,
       4.16286243e-03, 5.55640843e-04, -2.96679256e-03, -6.03393000e-03,
       -6.19915966e-03, -8.12821742e-03, -4.94154543e-03, 3.98726622e-03,
       -5.02422825e-03, -2.14439468e-03, 5.17900474e-03, 4.72107157e-03,
       -2.53923144e-03, -8.27209651e-03, -1.19917411e-02,
       -1.14341388e-02, -9.91292391e-03, -3.19199893e-03, 8.19022011e-04,
       1.11413980e-02, 1.00745335e-02, -1.16467665e-04, -1.14212744e-02,
       -1.30974632e-02, -9.79077537e-03, -5.60700987e-03, 7.71066465e-04,
       2.09091371e-03, 7.40697049e-03, 2.88153486e-03, -7.21433712e-03,
       -1.13688279e-02, -1.15172127e-02, -6.27850555e-03,
       -1.74014701e-03, 3.38988102e-05, -1.07270782e-03, 8.67857598e-03,
       5.06484043e-03, -5.00856154e-03, -1.42132649e-02, -8.51907302e-03,
       -2.69531249e-03, -1.42369419e-04, 4.32865490e-04, 3.18020280e-03,
       -4.56470950e-03, -5.08177839e-03, -2.86455429e-03, 1.49681728e-04,
       1.24919123e-03, 3.16248066e-03, 2.91178282e-03, -5.39472373e-03,
       -4.10690764e-03, -1.74157985e-03, 3.56519420e-04, -1.18812942e-03,
       -1.81622439e-04, -3.66864796e-03, -6.03105733e-03,
       -6.16550911e-03, 6.47810102e-03, 2.86966213e-03, -2.42600287e-03,
       -6.02267822e-03, -8.24104436e-03, -6.70374930e-03,
       -3.08442302e-03, 2.84398580e-03, 5.49786864e-03, 4.23093326e-03,
       4.16286243e-03, 5.55640843e-04, -2.96679256e-03, -6.03393000e-03,
       -6.19915966e-03, -8.12821742e-03, -4.94154543e-03, 3.98726622e-03,
       -5.02422825e-03, -2.14439468e-03, 5.17900474e-03, 4.72107157e-03,
       -2.53923144e-03, -8.27209651e-03, -1.19917411e-02,
       -1.14341388e-02, -9.91292391e-03, -3.19199893e-03, 8.19022011e-04,
       1.11413980e-02, 1.00745335e-02, -1.16467665e-04, -1.14212744e-02,
       -1.30974632e-02, -9.79077537e-03, -5.60700987e-03, 7.71066465e-04,
       2.09091371e-03, 7.40697049e-03, 2.88153486e-03, -7.21433712e-03,
       -1.13688279e-02, -1.15172127e-02, -6.27850555e-03,
       -1.74014701e-03, 3.38988102e-05, -1.07270782e-03, 8.67857598e-03,
       5.06484043e-03, -5.00856154e-03, -1.42132649e-02, -8.51907302e-03,
       -2.69531249e-03, -1.42369419e-04, 6.50188373e-03, 3.90346837e-03,
       1.28483749e-03, -4.41101054e-03, -5.89691987e-03, -7.59071764e-03,
       -3.65626067e-03, -1.37192500e-03, 8.78479797e-03, 1.57912672e-02,
       8.56594555e-03, 6.42361771e-03, -2.44488055e-03, -9.38729476e-03,
       -7.71479635e-03, -2.99892505e-03, -2.50639650e-03, 1.18719069e-02,
       -8.63085221e-03, -3.08472943e-03, 1.46889972e-04, -7.04091741e-03,
       -4.02222574e-03, -7.33606704e-03, -7.68851442e-03,
       -1.37280058e-02, -1.11897849e-02, -4.35244571e-03,
       -1.92329206e-03, 3.12431040e-03, -5.07292524e-03, -5.42861363e-03,
       -6.68446627e-03, -5.02222916e-03, -1.26538733e-02,
       -1.24666002e-02, 9.83826257e-03, 1.20567838e-02, 1.15897032e-02,
       8.06513068e-04, -6.12504873e-03, -8.81543010e-03, -6.06475351e-03,
       -3.82140884e-03, 4.80945362e-03, 3.18361586e-03, 2.82864839e-05,
       7.24359602e-03, 2.13294174e-03, -3.13254562e-03, -1.02230730e-02,
       -4.30209003e-03, 3.40872398e-03, 5.24854800e-03, -1.01408968e-02,
       -1.68382260e-03, 6.91840611e-03, -5.89720160e-03, -3.25331255e-03,
       -8.99875164e-03, -9.36634652e-03, -1.15394630e-02,
       -1.55884577e-02, -1.23636937e-02, -9.98398475e-03,
       -4.67578461e-03, -1.04424646e-02, -3.99119593e-03,
       -1.00671751e-02, -8.13328940e-03, -4.36688075e-03,
       -1.05697876e-02, 6.50188373e-03, 3.90346837e-03, 1.28483749e-03,
       -4.41101054e-03, -5.89691987e-03, -7.59071764e-03,
       -3.65626067e-03, -1.37192500e-03, 8.78479797e-03, 1.57912672e-02,
       8.56594555e-03, 6.42361771e-03, -2.44488055e-03, -9.38729476e-03,
       -7.71479635e-03, -2.99892505e-03, -2.50639650e-03, 1.18719069e-02,
       -8.63085221e-03, -3.08472943e-03, 1.46889972e-04, -7.04091741e-03,
       -4.02222574e-03, -7.33606704e-03, -7.68851442e-03,
       -1.37280058e-02, -1.11897849e-02, -4.35244571e-03,
       -1.92329206e-03, 3.12431040e-03, -5.07292524e-03, -5.42861363e-03,
       -6.68446627e-03, -5.02222916e-03, -1.26538733e-02,
       -1.24666002e-02, 9.83826257e-03, 1.20567838e-02, 1.15897032e-02,
       8.06513068e-04, -6.12504873e-03, -8.81543010e-03, -6.06475351e-03,
       -3.82140884e-03, 4.80945362e-03, 3.18361586e-03, 2.82864839e-05,
       7.24359602e-03, 2.13294174e-03, -3.13254562e-03, -1.02230730e-02,
       -4.30209003e-03, 3.40872398e-03, 5.24854800e-03, -1.01408968e-02,
       -1.68382260e-03, 6.91840611e-03, -5.89720160e-03, -3.25331255e-03,
       -8.99875164e-03, -9.36634652e-03, -1.15394630e-02,
       -1.55884577e-02, -1.23636937e-02, -9.98398475e-03,
       -4.67578461e-03, -1.04424646e-02, -3.99119593e-03,
       -1.00671751e-02, -8.13328940e-03, -4.36688075e-03,
       -1.05697876e-02, -1.28045666e-03, 4.98890458e-03, 6.33022934e-03,
       -9.59001656e-04, 5.79903973e-03, 3.25938890e-04, -1.63515087e-03,
       -7.67500885e-03, -3.29526374e-03, 2.43493426e-03, 3.49209481e-03,
       5.01978956e-03, 9.04676446e-04, 8.39383807e-03, 1.98877580e-03,
       4.63708490e-03, -1.99328992e-03, -3.90969857e-04, -5.05994447e-03,
       -2.11872905e-03, 4.34531691e-03, -2.93164368e-04, 5.61867375e-03,
       -6.94956305e-03, -8.21548700e-03, -6.10380992e-03,
       -5.40875457e-03, -9.40747000e-03, -1.98444934e-03, 5.28551918e-03,
       1.11503224e-03, 5.65702841e-03, -3.37660103e-03, -1.20948534e-03,
       -5.02841780e-03, -7.24634482e-03, -1.41760637e-03, 4.41426411e-03,
       6.21360121e-03, 9.91474488e-04, 7.09115900e-03, -9.92283094e-05,
       1.08067659e-04, -4.24547633e-03, -6.33899961e-03, -7.05331005e-03,
       -4.82761720e-03, -2.91012930e-05, -3.21257650e-03, 8.78325477e-03,
       -2.78900145e-03, -3.34370905e-03, -2.06399872e-03,
       -2.43224320e-03, -7.55468523e-03, -2.30282033e-03, 1.75284618e-03,
       1.65651890e-03, 4.27688798e-03, -3.78146931e-03, -7.01388635e-04,
       -3.45321349e-03, -7.32704811e-03, -6.24108082e-03,
       -8.64878763e-03, -1.43036293e-03, 3.05070332e-03, 9.20153968e-03,
       -6.92559453e-03, -6.42424682e-03, -7.26823183e-03,
       -1.60286669e-03, -7.07446272e-03, -6.56615105e-03,
       -4.50576982e-03, -8.31781700e-03, 3.94896651e-03, -2.80513428e-03,
       -2.40103551e-03, -5.10645146e-03, -5.18989097e-03,
       -4.23654588e-03, -5.81438770e-04, 3.35078425e-04, -5.68138482e-03,
       1.01851691e-02, -2.27104663e-03, -2.12615682e-03, -3.61171085e-03,
       -5.60934329e-03, -5.09902881e-03, -4.38294653e-03,
       -1.81380159e-03, -1.48399326e-03, 8.47155135e-03, -3.70357418e-04,
       3.81483638e-04, -2.26237066e-03, -5.36668813e-03, -2.69940658e-03,
       9.58303979e-04, 6.79924013e-03, 8.65986291e-03, 1.64549258e-02,
       -3.47042544e-04, -3.28062358e-03, -7.72367790e-03,
       -6.59914128e-03, -7.44918920e-03, -3.82111827e-03,
       -6.25257235e-05, -3.23607540e-03, 2.62390380e-03, -8.76215100e-03,
       -1.12283463e-02, -1.06236860e-02, -1.06231151e-02,
       -6.21431507e-03, -1.26725726e-03, -1.20755250e-03, 6.71456277e-04,
       1.54657708e-02, -2.26820703e-03, -1.04649561e-02, -1.12006953e-02,
       -9.37731843e-03, -7.65577517e-03, -2.66066263e-03, 3.57245211e-03,
       2.31455639e-03, 8.33596475e-03, -6.63485471e-03, -9.61922854e-03,
       -1.39938584e-02, -9.98236984e-03, -2.74046138e-03, 7.28366477e-03,
       6.47924934e-03, 6.69291522e-03, 1.76380072e-02, -1.65331876e-03,
       -1.11192418e-02, -1.38502894e-02, -8.48002452e-03,
       -1.22689083e-02, -9.57780983e-03, -7.06574367e-03,
       -7.41459150e-03, -3.46196163e-03, 2.08211160e-04, -2.66686152e-03,
       -1.09909782e-02, -1.32037131e-02, -9.55532398e-03,
       -5.89260971e-03, -4.78834938e-03, -3.37296142e-03,
       -3.20652442e-04, -5.97405201e-03, -1.21741248e-02,
       -1.63032226e-02, -1.41753489e-02, -3.71765834e-03,
       -3.88943730e-03, -4.31754161e-03, -2.16896413e-03, 1.50227663e-03,
       6.52037375e-03, 4.47760383e-03, 5.13406645e-04, -3.35881626e-03,
       3.00055859e-03, 4.18302836e-03, 4.15095175e-03, 1.15320424e-03,
       2.67494959e-03, -1.83527265e-03, -6.75566914e-03, -8.48776940e-03,
       -6.68905769e-03, -9.72067378e-03, -7.44409300e-03,
       -5.54350950e-03, -3.42077436e-03, 3.50522599e-03, -6.56059058e-03,
       -9.87945031e-03, -1.36071770e-02, -1.15042292e-02,
       -6.77035516e-03, -5.58725675e-04, -2.44217971e-03, 3.29606282e-03,
       9.79742687e-03, -8.32613744e-03, -1.15977526e-02, -1.24216098e-02,
       -1.06801065e-02, -5.91321755e-03, -9.09468275e-04, 3.04453215e-03,
       -7.46095320e-04, 2.35480862e-03, -7.34388921e-03, -1.14269815e-02,
       -1.29257105e-02, -1.15829604e-02, -2.69017095e-04, 6.51851390e-03,
       9.05047357e-03, 1.13090323e-02, 7.33514270e-03, -5.26381098e-03,
       -6.91743894e-03, -4.48759459e-03, -4.66550048e-03,
       -1.22689083e-02, -9.57780983e-03, -7.06574367e-03,
       -7.41459150e-03, -3.46196163e-03, 2.08211160e-04, -2.66686152e-03,
       -1.09909782e-02, -1.32037131e-02, -9.55532398e-03,
       -5.89260971e-03, -4.78834938e-03, -3.37296142e-03,
       -3.20652442e-04, -5.97405201e-03, -1.21741248e-02,
       -1.63032226e-02, -1.41753489e-02, -3.71765834e-03,
       -3.88943730e-03, -4.31754161e-03, -2.16896413e-03, 1.50227663e-03,
       6.52037375e-03, 4.47760383e-03, 5.13406645e-04, -3.35881626e-03,
       3.00055859e-03, 4.18302836e-03, 4.15095175e-03, 1.15320424e-03,
       2.67494959e-03, -1.83527265e-03, -6.75566914e-03, -8.48776940e-03,
       -6.68905769e-03, -9.72067378e-03, -7.44409300e-03,
       -5.54350950e-03, -3.42077436e-03, 3.50522599e-03, -6.56059058e-03,
       -9.87945031e-03, -1.36071770e-02, -1.15042292e-02,
       -6.77035516e-03, -5.58725675e-04, -2.44217971e-03, 3.29606282e-03,
       9.79742687e-03, -8.32613744e-03, -1.15977526e-02, -1.24216098e-02,
       -1.06801065e-02, -5.91321755e-03, -9.09468275e-04, 3.04453215e-03,
       -7.46095320e-04, 2.35480862e-03, -7.34388921e-03, -1.14269815e-02,
       -1.29257105e-02, -1.15829604e-02, -2.69017095e-04, 6.51851390e-03,
       9.05047357e-03, 1.13090323e-02, 7.33514270e-03, -5.26381098e-03,
       -6.91743894e-03, -4.48759459e-03, -4.66550048e-03, 2.65568466e-04,
       -1.70528679e-03, -6.32471405e-03, -5.53434063e-03,
       -6.09860616e-03, -1.11999968e-03, 1.95221219e-03, -2.38019647e-03,
       -3.37634818e-03, 2.43822229e-03, 3.29290866e-04, -1.45050557e-03,
       -3.33442027e-03, -2.03167973e-03, -3.58994538e-03,
       -2.28470052e-03, -6.37602992e-03, -3.86911537e-03,
       -1.59039220e-03, -3.10442853e-03, -1.11055691e-02,
       -8.46587680e-03, -5.62358228e-03, 2.56601052e-04, 1.04258000e-03,
       -3.78590403e-03, -4.50781081e-03, 2.08508340e-03, -1.40297296e-03,
       -4.54681087e-03, -5.32398699e-03, 4.61485423e-03, 7.18970178e-03,
       4.18802164e-03, -5.40854968e-03, -3.06891906e-03, -1.43872597e-03,
       1.55280519e-04, 2.69924849e-03, -1.35420484e-03, 3.62380844e-04,
       -3.37859942e-03, -7.32368510e-03, -1.24625647e-02,
       -7.31664477e-03, -1.30441471e-03, 7.62520358e-05, 3.03937728e-03,
       3.11107165e-03, 1.23785785e-03, -5.85550442e-03, -6.55953633e-03,
       -6.74978225e-03, -3.93965328e-03, 2.22294475e-03, -4.51044692e-03,
       -3.03520332e-03, -1.83814683e-03, 7.90851470e-03, 8.16303864e-03,
       2.41088471e-03, -8.91537964e-03, -3.66654014e-03, 4.04914346e-04,
       -3.12330946e-03, -2.45257048e-03, -2.02978146e-04, 4.33051260e-03,
       -2.88543012e-03, -8.00210983e-03, -6.96652848e-03,
       -1.92043278e-03, 2.65568466e-04, -1.70528679e-03, -6.32471405e-03,
       -5.53434063e-03, -6.09860616e-03, -1.11999968e-03, 1.95221219e-03,
       -2.38019647e-03, -3.37634818e-03, 2.43822229e-03, 3.29290866e-04,
       -1.45050557e-03, -3.33442027e-03, -2.03167973e-03,
       -3.58994538e-03, -2.28470052e-03, -6.37602992e-03,
       -3.86911537e-03, -1.59039220e-03, -3.10442853e-03,
       -1.11055691e-02, -8.46587680e-03, -5.62358228e-03, 2.56601052e-04,
       1.04258000e-03, -3.78590403e-03, -4.50781081e-03, 2.08508340e-03,
       -1.40297296e-03, -4.54681087e-03, -5.32398699e-03, 4.61485423e-03,
       7.18970178e-03, 4.18802164e-03, -5.40854968e-03, -3.06891906e-03,
       -1.43872597e-03, 1.55280519e-04, 2.69924849e-03, -1.35420484e-03,
       3.62380844e-04, -3.37859942e-03, -7.32368510e-03, -1.24625647e-02,
       -7.31664477e-03, -1.30441471e-03, 7.62520358e-05, 3.03937728e-03,
       3.11107165e-03, 1.23785785e-03, -5.85550442e-03, -6.55953633e-03,
       -6.74978225e-03, -3.93965328e-03, 2.22294475e-03, -4.51044692e-03,
       -3.03520332e-03, -1.83814683e-03, 7.90851470e-03, 8.16303864e-03,
       2.41088471e-03, -8.91537964e-03, -3.66654014e-03, 4.04914346e-04,
       -3.12330946e-03, -2.45257048e-03, -2.02978146e-04, 4.33051260e-03,
       -2.88543012e-03, -8.00210983e-03, -6.96652848e-03,
       -1.92043278e-03, -6.62011374e-03, -6.40059216e-03,
       -9.61638708e-03, -4.61242720e-03, 2.66676047e-03, 4.84737009e-03,
       8.73722718e-04, -7.38039752e-03, -7.85364676e-03, -4.15183790e-03,
       -3.96344066e-03, -4.51265229e-03, -8.67854178e-05, 1.10069579e-02,
       1.23243863e-02, -3.54450594e-06, -5.59262373e-03, -8.92565493e-03,
       -6.37180917e-03, -3.41168582e-03, 3.82787571e-03, 7.96795916e-03,
       4.52737603e-03, -5.44819486e-05, -9.01005138e-03, -1.30710434e-02,
       -1.13798780e-02, -3.78500996e-03, 2.14162422e-03, 8.14033300e-03,
       1.11142565e-02, 1.36217512e-02, 3.03193461e-03, -8.30532983e-03,
       -8.57252162e-03, -5.72455721e-03, -1.20287167e-03, 1.33932102e-03,
       -3.40418704e-03, 9.67130618e-05, 7.92351365e-03, 6.48582354e-03,
       -4.98769991e-03, -5.21765510e-03, -5.93277533e-03,
       -1.34825241e-03, 4.77788784e-03, -4.85356606e-04, -2.16829870e-03,
       3.16486112e-03, 2.16737491e-04, -7.74483243e-03, -4.47204802e-03,
       -2.95333541e-03, -1.45200756e-03, 1.49245572e-03, 2.94588623e-03,
       6.25476567e-03, 6.68334495e-03, -1.47081050e-03, -9.43842903e-03,
       -1.62891089e-03, -2.85152043e-03, 8.78959778e-04, 3.33590619e-03,
       -9.49353154e-04, -4.87615215e-03, -1.05324539e-03,
       -3.73477419e-03, -7.96594936e-03, -4.19205790e-05, 3.31526317e-05,
       -6.62011374e-03, -6.40059216e-03, -9.61638708e-03,
       -4.61242720e-03, 2.66676047e-03, 4.84737009e-03, 8.73722718e-04,
       -7.38039752e-03, -7.85364676e-03, -4.15183790e-03,
       -3.96344066e-03, -4.51265229e-03, -8.67854178e-05, 1.10069579e-02,
       1.23243863e-02, -3.54450594e-06, -5.59262373e-03, -8.92565493e-03,
       -6.37180917e-03, -3.41168582e-03, 3.82787571e-03, 7.96795916e-03,
       4.52737603e-03, -5.44819486e-05, -9.01005138e-03, -1.30710434e-02,
       -1.13798780e-02, -3.78500996e-03, 2.14162422e-03, 8.14033300e-03,
       1.11142565e-02, 1.36217512e-02, 3.03193461e-03, -8.30532983e-03,
       -8.57252162e-03, -5.72455721e-03, -1.20287167e-03, 1.33932102e-03,
       -3.40418704e-03, 9.67130618e-05, 7.92351365e-03, 6.48582354e-03,
       -4.98769991e-03, -5.21765510e-03, -5.93277533e-03,
       -1.34825241e-03, 4.77788784e-03, -4.85356606e-04, -2.16829870e-03,
       3.16486112e-03, 2.16737491e-04, -7.74483243e-03, -4.47204802e-03,
       -2.95333541e-03, -1.45200756e-03, 1.49245572e-03, 2.94588623e-03,
       6.25476567e-03, 6.68334495e-03, -1.47081050e-03, -9.43842903e-03,
       -1.62891089e-03, -2.85152043e-03, 8.78959778e-04, 3.33590619e-03,
       -9.49353154e-04, -4.87615215e-03, -1.05324539e-03,
       -3.73477419e-03, -7.96594936e-03, -4.19205790e-05, 3.31526317e-05,
       -5.02422825e-03, -2.14439468e-03, 5.17900474e-03, 4.72107157e-03,
       -2.53923144e-03, -8.27209651e-03, -1.19917411e-02,
       -1.14341388e-02, -9.91292391e-03, -3.19199893e-03, 8.19022011e-04,
       1.11413980e-02, 1.00745335e-02, -1.16467665e-04, -1.14212744e-02,
       -1.30974632e-02, -9.79077537e-03, -5.60700987e-03, 7.71066465e-04,
       2.09091371e-03, 7.40697049e-03, 2.88153486e-03, -7.21433712e-03,
       -1.13688279e-02, -1.15172127e-02, -6.27850555e-03,
       -1.74014701e-03, 3.38988102e-05, -1.07270782e-03, 8.67857598e-03,
       5.06484043e-03, -5.00856154e-03, -1.42132649e-02, -8.51907302e-03,
       -2.69531249e-03, -1.42369419e-04, 1.10057928e-03, -1.13444589e-03,
       7.39035849e-03, 7.49112573e-03, 1.16215460e-03, -7.83394743e-03,
       -9.71309934e-03, -1.01468165e-03, 2.31897854e-03, 6.65706862e-03,
       6.39078615e-04, -2.81654438e-03, -2.59494036e-03, -3.68103804e-03,
       -3.89454374e-03, -2.90174433e-03, 3.77553585e-03, 5.17926179e-03,
       -2.54865200e-03, -8.90030246e-03, 6.77805045e-04, 1.09324232e-03,
       -5.13443304e-03, -1.13335541e-02, -4.36695386e-03, 8.14878207e-04,
       1.88038812e-03, 1.71143201e-03, -5.79013908e-03, -1.06636742e-02,
       -6.95907604e-03, -7.77546968e-03, -6.78148167e-03, 1.80013551e-04,
       4.51492099e-03, 4.34170850e-03, -5.02422825e-03, -2.14439468e-03,
       5.17900474e-03, 4.72107157e-03, -2.53923144e-03, -8.27209651e-03,
       -1.19917411e-02, -1.14341388e-02, -9.91292391e-03,
       -3.19199893e-03, 8.19022011e-04, 1.11413980e-02, 1.00745335e-02,
       -1.16467665e-04, -1.14212744e-02, -1.30974632e-02,
       -9.79077537e-03, -5.60700987e-03, 7.71066465e-04, 2.09091371e-03,
       7.40697049e-03, 2.88153486e-03, -7.21433712e-03, -1.13688279e-02,
       -1.15172127e-02, -6.27850555e-03, -1.74014701e-03, 3.38988102e-05,
       -1.07270782e-03, 8.67857598e-03, 5.06484043e-03, -5.00856154e-03,
       -1.42132649e-02, -8.51907302e-03, -2.69531249e-03,
       -1.42369419e-04, 1.10057928e-03, -1.13444589e-03, 7.39035849e-03,
       7.49112573e-03, 1.16215460e-03, -7.83394743e-03, -9.71309934e-03,
       -1.01468165e-03, 2.31897854e-03, 6.65706862e-03, 6.39078615e-04,
       -2.81654438e-03, -2.59494036e-03, -3.68103804e-03,
       -3.89454374e-03, -2.90174433e-03, 3.77553585e-03, 5.17926179e-03,
       -2.54865200e-03, -8.90030246e-03, 6.77805045e-04, 1.09324232e-03,
       -5.13443304e-03, -1.13335541e-02, -4.36695386e-03, 8.14878207e-04,
       1.88038812e-03, 1.71143201e-03, -5.79013908e-03, -1.06636742e-02,
       -6.95907604e-03, -7.77546968e-03, -6.78148167e-03, 1.80013551e-04,
       4.51492099e-03, 4.34170850e-03, 9.83826257e-03, 1.20567838e-02,
       1.15897032e-02, 8.06513068e-04, -6.12504873e-03, -8.81543010e-03,
       -6.06475351e-03, -3.82140884e-03, 4.80945362e-03, 3.18361586e-03,
       2.82864839e-05, 7.24359602e-03, 2.13294174e-03, -3.13254562e-03,
       -1.02230730e-02, -4.30209003e-03, 3.40872398e-03, 5.24854800e-03,
       -1.01408968e-02, -1.68382260e-03, 6.91840611e-03, -5.89720160e-03,
       -3.25331255e-03, -8.99875164e-03, -9.36634652e-03,
       -1.15394630e-02, -1.55884577e-02, -1.23636937e-02,
       -9.98398475e-03, -4.67578461e-03, -1.04424646e-02,
       -3.99119593e-03, -1.00671751e-02, -8.13328940e-03,
       -4.36688075e-03, -1.05697876e-02, -2.75432394e-04,
       -3.16624157e-03, -1.90813572e-03, -6.30640192e-04, 8.87384871e-04,
       -8.17429833e-03, -3.06127500e-03, 6.76473742e-03, 5.00659132e-03,
       9.40132246e-04, -5.09526348e-03, -8.27430654e-03, -4.89808246e-03,
       2.43228651e-03, -7.64688663e-03, 1.67258680e-04, 4.29738732e-03,
       3.87062551e-03, -7.20919296e-03, -1.19185811e-02, -1.00887669e-02,
       -1.13794794e-02, -4.04502638e-03, -8.70137196e-03,
       -6.37577707e-03, 1.73236802e-03, -1.07423658e-03, -4.48523834e-03,
       -1.34189762e-02, -6.53426163e-03, -2.21012696e-03, 1.30042993e-03,
       -1.07636210e-02, -5.28235920e-03, 1.07569399e-03, -4.68871236e-04,
       9.83826257e-03, 1.20567838e-02, 1.15897032e-02, 8.06513068e-04,
       -6.12504873e-03, -8.81543010e-03, -6.06475351e-03,
       -3.82140884e-03, 4.80945362e-03, 3.18361586e-03, 2.82864839e-05,
       7.24359602e-03, 2.13294174e-03, -3.13254562e-03, -1.02230730e-02,
       -4.30209003e-03, 3.40872398e-03, 5.24854800e-03, -1.01408968e-02,
       -1.68382260e-03, 6.91840611e-03, -5.89720160e-03, -3.25331255e-03,
       -8.99875164e-03, -9.36634652e-03, -1.15394630e-02,
       -1.55884577e-02, -1.23636937e-02, -9.98398475e-03,
       -4.67578461e-03, -1.04424646e-02, -3.99119593e-03,
       -1.00671751e-02, -8.13328940e-03, -4.36688075e-03,
       -1.05697876e-02, -2.75432394e-04, -3.16624157e-03,
       -1.90813572e-03, -6.30640192e-04, 8.87384871e-04, -8.17429833e-03,
       -3.06127500e-03, 6.76473742e-03, 5.00659132e-03, 9.40132246e-04,
       -5.09526348e-03, -8.27430654e-03, -4.89808246e-03, 2.43228651e-03,
       -7.64688663e-03, 1.67258680e-04, 4.29738732e-03, 3.87062551e-03,
       -7.20919296e-03, -1.19185811e-02, -1.00887669e-02,
       -1.13794794e-02, -4.04502638e-03, -8.70137196e-03,
       -6.37577707e-03, 1.73236802e-03, -1.07423658e-03, -4.48523834e-03,
       -1.34189762e-02, -6.53426163e-03, -2.21012696e-03, 1.30042993e-03,
       -1.07636210e-02, -5.28235920e-03, 1.07569399e-03, -4.68871236e-04,
       -1.41760637e-03, 4.41426411e-03, 6.21360121e-03, 9.91474488e-04,
       7.09115900e-03, -9.92283094e-05, 1.08067659e-04, -4.24547633e-03,
       -6.33899961e-03, -7.05331005e-03, -4.82761720e-03,
       -2.91012930e-05, -3.21257650e-03, 8.78325477e-03, -2.78900145e-03,
       -3.34370905e-03, -2.06399872e-03, -2.43224320e-03,
       -7.55468523e-03, -2.30282033e-03, 1.75284618e-03, 1.65651890e-03,
       4.27688798e-03, -3.78146931e-03, -7.01388635e-04, -3.45321349e-03,
       -7.32704811e-03, -6.24108082e-03, -8.64878763e-03,
       -1.43036293e-03, 3.05070332e-03, 9.20153968e-03, -6.92559453e-03,
       -6.42424682e-03, -7.26823183e-03, -1.60286669e-03,
       -1.02710109e-02, -1.12800924e-02, -7.94854574e-03,
       -7.27434410e-03, 2.82847160e-03, -6.02658093e-03, -5.20711858e-03,
       -3.22686671e-03, -3.31502850e-03, -6.21143635e-03,
       -1.25109954e-02, -3.93586420e-03, 5.81493136e-03, 1.60363447e-02,
       -3.52143589e-03, 3.94461630e-03, 4.52237576e-03, -1.23275875e-03,
       -1.05716940e-02, -1.24795251e-02, -2.99691735e-03,
       -4.24269849e-04, 5.29055111e-03, -8.05465691e-03, -9.37954336e-03,
       -1.01242382e-02, -9.88402031e-03, -8.71433038e-03,
       -1.29404254e-02, -1.30613230e-03, 8.92100483e-03, 1.64837260e-02,
       -1.16574857e-03, -2.67571653e-03, -3.28326761e-03,
       -5.38806757e-03, -7.44918920e-03, -3.82111827e-03,
       -6.25257235e-05, -3.23607540e-03, 2.62390380e-03, -8.76215100e-03,
       -1.12283463e-02, -1.06236860e-02, -1.06231151e-02,
       -6.21431507e-03, -1.26725726e-03, -1.20755250e-03, 6.71456277e-04,
       1.54657708e-02, -2.26820703e-03, -1.04649561e-02, -1.12006953e-02,
       -9.37731843e-03, -7.65577517e-03, -2.66066263e-03, 3.57245211e-03,
       2.31455639e-03, 8.33596475e-03, -6.63485471e-03, -9.61922854e-03,
       -1.39938584e-02, -9.98236984e-03, -2.74046138e-03, 7.28366477e-03,
       6.47924934e-03, 6.69291522e-03, 1.76380072e-02, -1.65331876e-03,
       -1.11192418e-02, -1.38502894e-02, -8.48002452e-03,
       -9.98741388e-03, -3.45420302e-03, -6.07359363e-03,
       -2.35515158e-03, 1.61793660e-02, -9.39095952e-03, -1.61460713e-02,
       -1.41196540e-02, -1.21072968e-02, -1.27159646e-02,
       -1.73395523e-03, -4.02018474e-03, 4.19661636e-03, 2.94247176e-02,
       9.88826505e-04, -1.55246537e-02, -1.45966429e-02, -1.33926487e-02,
       -5.97174931e-03, -9.85119957e-04, -5.86964376e-03,
       -2.49382784e-03, 9.24128946e-03, -1.12561248e-02, -1.80677436e-02,
       -1.31869419e-02, -1.19007397e-02, -6.88218465e-03,
       -1.77860516e-03, -6.37956150e-03, 2.84163514e-03, 2.42327079e-02,
       -2.14617955e-03, -1.17937606e-02, -1.14668254e-02,
       -1.14828609e-02, -9.72067378e-03, -7.44409300e-03,
       -5.54350950e-03, -3.42077436e-03, 3.50522599e-03, -6.56059058e-03,
       -9.87945031e-03, -1.36071770e-02, -1.15042292e-02,
       -6.77035516e-03, -5.58725675e-04, -2.44217971e-03, 3.29606282e-03,
       9.79742687e-03, -8.32613744e-03, -1.15977526e-02, -1.24216098e-02,
       -1.06801065e-02, -5.91321755e-03, -9.09468275e-04, 3.04453215e-03,
       -7.46095320e-04, 2.35480862e-03, -7.34388921e-03, -1.14269815e-02,
       -1.29257105e-02, -1.15829604e-02, -2.69017095e-04, 6.51851390e-03,
       9.05047357e-03, 1.13090323e-02, 7.33514270e-03, -5.26381098e-03,
       -6.91743894e-03, -4.48759459e-03, -4.66550048e-03,
       -1.67534221e-03, 2.07406143e-03, -2.63778027e-03, -2.15325854e-03,
       4.14389418e-03, -1.35240741e-02, -1.38063729e-02, -8.96910112e-03,
       -8.50302912e-03, -3.09950765e-03, 3.68892594e-04, -6.26656367e-03,
       -2.56532896e-03, 1.17888823e-02, -8.24740902e-03, -8.62657558e-03,
       -7.62190390e-03, -7.99068343e-03, 4.85035218e-03, 9.72980983e-04,
       -4.02447069e-03, -4.20269882e-03, 3.85545241e-03, -9.89214517e-03,
       -8.27473402e-03, -4.81396075e-03, -2.53255339e-03, 6.38202764e-03,
       1.89646566e-03, -7.61498325e-03, -2.11018487e-03, 9.54073761e-03,
       -7.52228033e-03, -9.53886937e-03, -8.21506511e-03,
       -2.44105777e-05, -9.72067378e-03, -7.44409300e-03,
       -5.54350950e-03, -3.42077436e-03, 3.50522599e-03, -6.56059058e-03,
       -9.87945031e-03, -1.36071770e-02, -1.15042292e-02,
       -6.77035516e-03, -5.58725675e-04, -2.44217971e-03, 3.29606282e-03,
       9.79742687e-03, -8.32613744e-03, -1.15977526e-02, -1.24216098e-02,
       -1.06801065e-02, -5.91321755e-03, -9.09468275e-04, 3.04453215e-03,
       -7.46095320e-04, 2.35480862e-03, -7.34388921e-03, -1.14269815e-02,
       -1.29257105e-02, -1.15829604e-02, -2.69017095e-04, 6.51851390e-03,
       9.05047357e-03, 1.13090323e-02, 7.33514270e-03, -5.26381098e-03,
       -6.91743894e-03, -4.48759459e-03, -4.66550048e-03,
       -1.67534221e-03, 2.07406143e-03, -2.63778027e-03, -2.15325854e-03,
       4.14389418e-03, -1.35240741e-02, -1.38063729e-02, -8.96910112e-03,
       -8.50302912e-03, -3.09950765e-03, 3.68892594e-04, -6.26656367e-03,
       -2.56532896e-03, 1.17888823e-02, -8.24740902e-03, -8.62657558e-03,
       -7.62190390e-03, -7.99068343e-03, 4.85035218e-03, 9.72980983e-04,
       -4.02447069e-03, -4.20269882e-03, 3.85545241e-03, -9.89214517e-03,
       -8.27473402e-03, -4.81396075e-03, -2.53255339e-03, 6.38202764e-03,
       1.89646566e-03, -7.61498325e-03, -2.11018487e-03, 9.54073761e-03,
       -7.52228033e-03, -9.53886937e-03, -8.21506511e-03,
       -2.44105777e-05, -1.43872597e-03, 1.55280519e-04, 2.69924849e-03,
       -1.35420484e-03, 3.62380844e-04, -3.37859942e-03, -7.32368510e-03,
       -1.24625647e-02, -7.31664477e-03, -1.30441471e-03, 7.62520358e-05,
       3.03937728e-03, 3.11107165e-03, 1.23785785e-03, -5.85550442e-03,
       -6.55953633e-03, -6.74978225e-03, -3.93965328e-03, 2.22294475e-03,
       -4.51044692e-03, -3.03520332e-03, -1.83814683e-03, 7.90851470e-03,
       8.16303864e-03, 2.41088471e-03, -8.91537964e-03, -3.66654014e-03,
       4.04914346e-04, -3.12330946e-03, -2.45257048e-03, -2.02978146e-04,
       4.33051260e-03, -2.88543012e-03, -8.00210983e-03, -6.96652848e-03,
       -1.92043278e-03, 5.87477861e-03, 2.44647218e-03, -1.87341846e-03,
       -2.62886961e-03, 1.61817798e-03, -9.08562448e-03, -2.57877400e-03,
       -1.83161552e-04, 2.50285119e-03, 4.61260928e-03, 1.53812545e-03,
       -3.30642588e-03, -2.84310943e-03, 5.72727295e-03, -7.08270492e-03,
       -3.51456902e-03, -2.47682747e-03, 2.85744877e-03, 2.22571008e-03,
       3.86657339e-04, -4.78480803e-03, -4.66154236e-03, 2.69524753e-04,
       -5.71630849e-03, -4.77070035e-03, 2.29830225e-03, 3.62558314e-03,
       8.49701115e-04, -4.08177916e-03, -6.87587727e-03, -4.31334740e-03,
       2.69271201e-04, -4.90536541e-03, -2.04583886e-03, 2.65088072e-03,
       1.30023714e-03, -1.43872597e-03, 1.55280519e-04, 2.69924849e-03,
       -1.35420484e-03, 3.62380844e-04, -3.37859942e-03, -7.32368510e-03,
       -1.24625647e-02, -7.31664477e-03, -1.30441471e-03, 7.62520358e-05,
       3.03937728e-03, 3.11107165e-03, 1.23785785e-03, -5.85550442e-03,
       -6.55953633e-03, -6.74978225e-03, -3.93965328e-03, 2.22294475e-03,
       -4.51044692e-03, -3.03520332e-03, -1.83814683e-03, 7.90851470e-03,
       8.16303864e-03, 2.41088471e-03, -8.91537964e-03, -3.66654014e-03,
       4.04914346e-04, -3.12330946e-03, -2.45257048e-03, -2.02978146e-04,
       4.33051260e-03, -2.88543012e-03, -8.00210983e-03, -6.96652848e-03,
       -1.92043278e-03, 5.87477861e-03, 2.44647218e-03, -1.87341846e-03,
       -2.62886961e-03, 1.61817798e-03, -9.08562448e-03, -2.57877400e-03,
       -1.83161552e-04, 2.50285119e-03, 4.61260928e-03, 1.53812545e-03,
       -3.30642588e-03, -2.84310943e-03, 5.72727295e-03, -7.08270492e-03,
       -3.51456902e-03, -2.47682747e-03, 2.85744877e-03, 2.22571008e-03,
       3.86657339e-04, -4.78480803e-03, -4.66154236e-03, 2.69524753e-04,
       -5.71630849e-03, -4.77070035e-03, 2.29830225e-03, 3.62558314e-03,
       8.49701115e-04, -4.08177916e-03, -6.87587727e-03, -4.31334740e-03,
       2.69271201e-04, -4.90536541e-03, -2.04583886e-03, 2.65088072e-03,
       1.30023714e-03, -1.20287167e-03, 1.33932102e-03, -3.40418704e-03,
       9.67130618e-05, 7.92351365e-03, 6.48582354e-03, -4.98769991e-03,
       -5.21765510e-03, -5.93277533e-03, -1.34825241e-03, 4.77788784e-03,
       -4.85356606e-04, -2.16829870e-03, 3.16486112e-03, 2.16737491e-04,
       -7.74483243e-03, -4.47204802e-03, -2.95333541e-03,
       -1.45200756e-03, 1.49245572e-03, 2.94588623e-03, 6.25476567e-03,
       6.68334495e-03, -1.47081050e-03, -9.43842903e-03, -1.62891089e-03,
       -2.85152043e-03, 8.78959778e-04, 3.33590619e-03, -9.49353154e-04,
       -4.87615215e-03, -1.05324539e-03, -3.73477419e-03,
       -7.96594936e-03, -4.19205790e-05, 3.31526317e-05, 3.70640354e-03,
       5.73661597e-03, -9.92514077e-04, -2.27776845e-03, 2.59049283e-03,
       -3.26359668e-03, -3.63700651e-03, 4.46122745e-03, 2.43487605e-03,
       -8.89500079e-04, -1.64009712e-03, -5.31964283e-03,
       -3.61672323e-03, 3.66966682e-03, -3.40576121e-03, -1.23300671e-03,
       3.85069614e-03, 1.74237892e-03, 5.79002639e-03, 5.22829872e-03,
       -1.82504032e-03, -2.33409437e-03, 5.75501239e-04, -8.65604437e-04,
       -3.49290180e-03, 3.28351301e-03, 3.67728132e-03, -8.67005088e-04,
       -3.98937333e-03, -6.01297105e-03, 4.00594389e-03, 9.83844977e-03,
       2.40848190e-03, -5.39596484e-04, 1.89963891e-03, 6.87447027e-04,
       -1.20287167e-03, 1.33932102e-03, -3.40418704e-03, 9.67130618e-05,
       7.92351365e-03, 6.48582354e-03, -4.98769991e-03, -5.21765510e-03,
       -5.93277533e-03, -1.34825241e-03, 4.77788784e-03, -4.85356606e-04,
       -2.16829870e-03, 3.16486112e-03, 2.16737491e-04, -7.74483243e-03,
       -4.47204802e-03, -2.95333541e-03, -1.45200756e-03, 1.49245572e-03,
       2.94588623e-03, 6.25476567e-03, 6.68334495e-03, -1.47081050e-03,
       -9.43842903e-03, -1.62891089e-03, -2.85152043e-03, 8.78959778e-04,
       3.33590619e-03, -9.49353154e-04, -4.87615215e-03, -1.05324539e-03,
       -3.73477419e-03, -7.96594936e-03, -4.19205790e-05, 3.31526317e-05,
       3.70640354e-03, 5.73661597e-03, -9.92514077e-04, -2.27776845e-03,
       2.59049283e-03, -3.26359668e-03, -3.63700651e-03, 4.46122745e-03,
       2.43487605e-03, -8.89500079e-04, -1.64009712e-03, -5.31964283e-03,
       -3.61672323e-03, 3.66966682e-03, -3.40576121e-03, -1.23300671e-03,
       3.85069614e-03, 1.74237892e-03, 5.79002639e-03, 5.22829872e-03,
       -1.82504032e-03, -2.33409437e-03, 5.75501239e-04, -8.65604437e-04,
       -3.49290180e-03, 3.28351301e-03, 3.67728132e-03, -8.67005088e-04,
       -3.98937333e-03, -6.01297105e-03, 4.00594389e-03, 9.83844977e-03,
       2.40848190e-03, -5.39596484e-04, 1.89963891e-03, 6.87447027e-04,
       1.10057928e-03, -1.13444589e-03, 7.39035849e-03, 7.49112573e-03,
       1.16215460e-03, -7.83394743e-03, -9.71309934e-03, -1.01468165e-03,
       2.31897854e-03, 6.65706862e-03, 6.39078615e-04, -2.81654438e-03,
       -2.59494036e-03, -3.68103804e-03, -3.89454374e-03,
       -2.90174433e-03, 3.77553585e-03, 5.17926179e-03, -2.54865200e-03,
       -8.90030246e-03, 6.77805045e-04, 1.09324232e-03, -5.13443304e-03,
       -1.13335541e-02, -4.36695386e-03, 8.14878207e-04, 1.88038812e-03,
       1.71143201e-03, -5.79013908e-03, -1.06636742e-02, -6.95907604e-03,
       -7.77546968e-03, -6.78148167e-03, 1.80013551e-04, 4.51492099e-03,
       4.34170850e-03, 3.41066951e-03, -8.39372340e-04, -5.48302475e-03,
       -3.61065986e-03, -5.04459813e-03, -3.91677208e-03,
       -3.49281263e-03, 6.61984741e-05, 6.30714872e-04, -2.51482450e-03,
       -5.46054402e-03, -4.01511835e-03, 5.35080396e-03, 5.20048197e-03,
       1.78371975e-03, -3.48920864e-03, -3.74113861e-03, -2.77622975e-03,
       3.04878084e-03, -5.21088671e-03, -4.53925738e-03, -2.85903760e-03,
       -8.59579537e-04, -3.41891218e-03, 2.17181514e-03, 1.68340781e-03,
       2.94161099e-03, -2.74648843e-03, -8.00722092e-03, 2.38882937e-03,
       8.94924439e-03, 7.04623433e-03, 1.06663664e-03, -1.12319365e-03,
       -1.33835117e-03, 1.17103837e-03, 1.10057928e-03, -1.13444589e-03,
       7.39035849e-03, 7.49112573e-03, 1.16215460e-03, -7.83394743e-03,
       -9.71309934e-03, -1.01468165e-03, 2.31897854e-03, 6.65706862e-03,
       6.39078615e-04, -2.81654438e-03, -2.59494036e-03, -3.68103804e-03,
       -3.89454374e-03, -2.90174433e-03, 3.77553585e-03, 5.17926179e-03,
       -2.54865200e-03, -8.90030246e-03, 6.77805045e-04, 1.09324232e-03,
       -5.13443304e-03, -1.13335541e-02, -4.36695386e-03, 8.14878207e-04,
       1.88038812e-03, 1.71143201e-03, -5.79013908e-03, -1.06636742e-02,
       -6.95907604e-03, -7.77546968e-03, -6.78148167e-03, 1.80013551e-04,
       4.51492099e-03, 4.34170850e-03, 3.41066951e-03, -8.39372340e-04,
       -5.48302475e-03, -3.61065986e-03, -5.04459813e-03,
       -3.91677208e-03, -3.49281263e-03, 6.61984741e-05, 6.30714872e-04,
       -2.51482450e-03, -5.46054402e-03, -4.01511835e-03, 5.35080396e-03,
       5.20048197e-03, 1.78371975e-03, -3.48920864e-03, -3.74113861e-03,
       -2.77622975e-03, 3.04878084e-03, -5.21088671e-03, -4.53925738e-03,
       -2.85903760e-03, -8.59579537e-04, -3.41891218e-03, 2.17181514e-03,
       1.68340781e-03, 2.94161099e-03, -2.74648843e-03, -8.00722092e-03,
       2.38882937e-03, 8.94924439e-03, 7.04623433e-03, 1.06663664e-03,
       -1.12319365e-03, -1.33835117e-03, 1.17103837e-03, -2.75432394e-04,
       -3.16624157e-03, -1.90813572e-03, -6.30640192e-04, 8.87384871e-04,
       -8.17429833e-03, -3.06127500e-03, 6.76473742e-03, 5.00659132e-03,
       9.40132246e-04, -5.09526348e-03, -8.27430654e-03, -4.89808246e-03,
       2.43228651e-03, -7.64688663e-03, 1.67258680e-04, 4.29738732e-03,
       3.87062551e-03, -7.20919296e-03, -1.19185811e-02, -1.00887669e-02,
       -1.13794794e-02, -4.04502638e-03, -8.70137196e-03,
       -6.37577707e-03, 1.73236802e-03, -1.07423658e-03, -4.48523834e-03,
       -1.34189762e-02, -6.53426163e-03, -2.21012696e-03, 1.30042993e-03,
       -1.07636210e-02, -5.28235920e-03, 1.07569399e-03, -4.68871236e-04,
       -4.21643630e-03, -6.52542617e-03, -5.01536764e-03, 1.23686423e-05,
       2.63998029e-03, -5.54846320e-03, -1.96023192e-03, 1.54158671e-03,
       1.72878863e-04, -5.26833721e-03, -9.18270089e-03, 3.72151080e-05,
       9.50908475e-03, 1.34541448e-02, 3.21273855e-03, 1.26635411e-03,
       1.32042100e-03, -1.07556942e-03, -9.17147007e-03, -1.16524752e-02,
       -8.80248286e-03, 1.94875163e-03, 3.96205857e-03, -6.20493013e-03,
       -5.16283605e-03, -4.04988788e-03, -6.56885887e-03,
       -1.09736957e-02, -1.16896033e-02, -7.77237862e-03, 3.64359049e-03,
       1.01512708e-02, 3.69640952e-03, -3.67327221e-03, -5.82130998e-03,
       -9.47110541e-03, -2.75432394e-04, -3.16624157e-03,
       -1.90813572e-03, -6.30640192e-04, 8.87384871e-04, -8.17429833e-03,
       -3.06127500e-03, 6.76473742e-03, 5.00659132e-03, 9.40132246e-04,
       -5.09526348e-03, -8.27430654e-03, -4.89808246e-03, 2.43228651e-03,
       -7.64688663e-03, 1.67258680e-04, 4.29738732e-03, 3.87062551e-03,
       -7.20919296e-03, -1.19185811e-02, -1.00887669e-02,
       -1.13794794e-02, -4.04502638e-03, -8.70137196e-03,
       -6.37577707e-03, 1.73236802e-03, -1.07423658e-03, -4.48523834e-03,
       -1.34189762e-02, -6.53426163e-03, -2.21012696e-03, 1.30042993e-03,
       -1.07636210e-02, -5.28235920e-03, 1.07569399e-03, -4.68871236e-04,
       -4.21643630e-03, -6.52542617e-03, -5.01536764e-03, 1.23686423e-05,
       2.63998029e-03, -5.54846320e-03, -1.96023192e-03, 1.54158671e-03,
       1.72878863e-04, -5.26833721e-03, -9.18270089e-03, 3.72151080e-05,
       9.50908475e-03, 1.34541448e-02, 3.21273855e-03, 1.26635411e-03,
       1.32042100e-03, -1.07556942e-03, -9.17147007e-03, -1.16524752e-02,
       -8.80248286e-03, 1.94875163e-03, 3.96205857e-03, -6.20493013e-03,
       -5.16283605e-03, -4.04988788e-03, -6.56885887e-03,
       -1.09736957e-02, -1.16896033e-02, -7.77237862e-03, 3.64359049e-03,
       1.01512708e-02, 3.69640952e-03, -3.67327221e-03, -5.82130998e-03,
       -9.47110541e-03, -1.02710109e-02, -1.12800924e-02,
       -7.94854574e-03, -7.27434410e-03, 2.82847160e-03, -6.02658093e-03,
       -5.20711858e-03, -3.22686671e-03, -3.31502850e-03,
       -6.21143635e-03, -1.25109954e-02, -3.93586420e-03, 5.81493136e-03,
       1.60363447e-02, -3.52143589e-03, 3.94461630e-03, 4.52237576e-03,
       -1.23275875e-03, -1.05716940e-02, -1.24795251e-02,
       -2.99691735e-03, -4.24269849e-04, 5.29055111e-03, -8.05465691e-03,
       -9.37954336e-03, -1.01242382e-02, -9.88402031e-03,
       -8.71433038e-03, -1.29404254e-02, -1.30613230e-03, 8.92100483e-03,
       1.64837260e-02, -1.16574857e-03, -2.67571653e-03, -3.28326761e-03,
       -5.38806757e-03, -1.06260004e-02, -1.34456018e-02,
       -8.46776087e-03, 6.26346702e-03, 1.46116316e-02, -7.26583647e-03,
       -4.96129505e-03, -3.26513499e-03, -9.58486926e-03,
       -1.19274370e-02, -1.29512101e-02, -1.32169230e-02, 5.34445047e-03,
       1.74772702e-02, 1.67408877e-03, -6.71385042e-03, -8.62467010e-03,
       -9.75355133e-03, -9.92960948e-03, -1.45022608e-02,
       -6.93343068e-03, 1.00686364e-02, 1.85525678e-02, -5.96798165e-03,
       -1.15358317e-02, -8.67108162e-03, -9.14011523e-03,
       -1.24255260e-02, -1.01721333e-02, -6.01225533e-03, 1.29525745e-02,
       1.78073216e-02, -3.42680514e-03, -8.97167530e-03, -9.98189021e-03,
       -9.02998634e-03, 4.98844802e-01 ]
